{"learner":{"attributes":{"scikit_learn":"{\"_estimator_type\": \"classifier\"}"},"feature_names":["cosine_similarity","caption_spacy_pos_noun_ratio","caption_spacy_pos_verb_ratio","caption_spacy_pos_adj_ratio","caption_spacy_pos_adv_ratio","caption_spacy_pos_pron_ratio","caption_spacy_stopword_ratio","caption_spacy_entity_count","caption_spacy_entity_density","caption_spacy_avg_token_length","caption_spacy_sentence_count","caption_textstat_flesch_reading_ease","caption_textstat_flesch_kincaid_grade","caption_textstat_gunning_fog","caption_textstat_smog_index","caption_textstat_coleman_liau","caption_textstat_automated_readability","caption_textstat_dale_chall","caption_textstat_difficult_words","caption_textstat_linsear_write","caption_vader_positive","caption_vader_negative","caption_vader_neutral","caption_vader_compound","caption_regex_exclamation_count","caption_regex_question_count","caption_regex_quote_count","caption_regex_uppercase_ratio","caption_regex_digit_ratio","caption_regex_punct_ratio","caption_regex_url_count","caption_regex_hashtag_count","caption_regex_mention_count","caption_regex_ellipsis_count","caption_regex_word_count","caption_regex_char_count","caption_regex_avg_word_length","caption_regex_lexical_diversity"],"feature_types":["float","float","float","float","float","float","float","float","float","float","float","float","float","float","float","float","float","float","float","float","float","float","float","float","float","float","float","float","float","float","float","float","float","float","float","float","float","float"],"gradient_booster":{"model":{"gbtree_model_param":{"num_parallel_tree":"1","num_trees":"300"},"iteration_indptr":[0,1,2,3,4,5,6,7,8,9,10,11,12,13,14,15,16,17,18,19,20,21,22,23,24,25,26,27,28,29,30,31,32,33,34,35,36,37,38,39,40,41,42,43,44,45,46,47,48,49,50,51,52,53,54,55,56,57,58,59,60,61,62,63,64,65,66,67,68,69,70,71,72,73,74,75,76,77,78,79,80,81,82,83,84,85,86,87,88,89,90,91,92,93,94,95,96,97,98,99,100,101,102,103,104,105,106,107,108,109,110,111,112,113,114,115,116,117,118,119,120,121,122,123,124,125,126,127,128,129,130,131,132,133,134,135,136,137,138,139,140,141,142,143,144,145,146,147,148,149,150,151,152,153,154,155,156,157,158,159,160,161,162,163,164,165,166,167,168,169,170,171,172,173,174,175,176,177,178,179,180,181,182,183,184,185,186,187,188,189,190,191,192,193,194,195,196,197,198,199,200,201,202,203,204,205,206,207,208,209,210,211,212,213,214,215,216,217,218,219,220,221,222,223,224,225,226,227,228,229,230,231,232,233,234,235,236,237,238,239,240,241,242,243,244,245,246,247,248,249,250,251,252,253,254,255,256,257,258,259,260,261,262,263,264,265,266,267,268,269,270,271,272,273,274,275,276,277,278,279,280,281,282,283,284,285,286,287,288,289,290,291,292,293,294,295,296,297,298,299,300],"tree_info":[0,0,0,0,0,0,0,0,0,0,0,0,0,0,0,0,0,0,0,0,0,0,0,0,0,0,0,0,0,0,0,0,0,0,0,0,0,0,0,0,0,0,0,0,0,0,0,0,0,0,0,0,0,0,0,0,0,0,0,0,0,0,0,0,0,0,0,0,0,0,0,0,0,0,0,0,0,0,0,0,0,0,0,0,0,0,0,0,0,0,0,0,0,0,0,0,0,0,0,0,0,0,0,0,0,0,0,0,0,0,0,0,0,0,0,0,0,0,0,0,0,0,0,0,0,0,0,0,0,0,0,0,0,0,0,0,0,0,0,0,0,0,0,0,0,0,0,0,0,0,0,0,0,0,0,0,0,0,0,0,0,0,0,0,0,0,0,0,0,0,0,0,0,0,0,0,0,0,0,0,0,0,0,0,0,0,0,0,0,0,0,0,0,0,0,0,0,0,0,0,0,0,0,0,0,0,0,0,0,0,0,0,0,0,0,0,0,0,0,0,0,0,0,0,0,0,0,0,0,0,0,0,0,0,0,0,0,0,0,0,0,0,0,0,0,0,0,0,0,0,0,0,0,0,0,0,0,0,0,0,0,0,0,0,0,0,0,0,0,0,0,0,0,0,0,0,0,0,0,0,0,0,0,0,0,0,0,0,0,0,0,0,0,0,0,0,0,0,0,0],"trees":[{"base_weights":[-3.2118158E-3,-9.6201354E-1,1.7999433E0,-1.1520832E0,7.6101255E-1,7.954632E-1,1.9354315E0,8.895968E-1,-1.2514045E0,1.5996027E0,3.6363233E-2,1.3376637E0,7.411226E-2,1.528039E0,2.0014923E0,1.3655876E0,3.5856748E-1,-4.6518904E-1,-1.4636966E0,1.6747023E0,5.993338E-1,-4.654049E-1,1.1844827E0,5.8401567E-1,1.522599E0,-1.7122978E-1,8.825718E-2,7.6238406E-1,1.7514055E0,1.0241377E-1,1.8873267E0,6.616168E-1,1.6511977E0,9.748743E-1,-1.3191426E-1,2.8087875E-1,-1.0243566E0,-1.4913309E0,1.7093482E0,1.930537E0,1.2706113E0,1.182553E0,-2.5400618E-1,-7.2566587E-1,1.5121949E0,-1.9720021E-1,1.5971777E0,1.3086516E0,1.19466476E-1,1.7410078E0,9.221003E-1,-5.006015E-1,8.0577815E-1,1.4095861E0,3.9956102E-1,1.8409197E0,7.7830255E-1,1.6224414E0,1.0085028E-1,3.8746808E-2,-2.4260743E-2,8.393397E-2,1.3789097E-2,6.17554E-2,-2.339856E-2,-1.5377643E-2,6.1787196E-2,-1.0506752E-2,5.9848238E-2,-5.7776153E-2,8.1834905E-2,-5.8607645E-2,-8.212831E-2,9.789371E-2,4.705428E-2,9.754792E-2,1.3789097E-2,7.526827E-2,1.2431881E-2,-8.461473E-3,7.342526E-2,-5.7205457E-2,1.4862205E-2,3.7744325E-2,-4.3241765E-2,8.644248E-2,-6.052353E-3,-2.364423E-2,6.295988E-2,9.014266E-2,4.080211E-2,8.1549965E-2,-1.7150346E-2,-9.354582E-3,6.361874E-2,1.3789097E-2,8.813786E-2,6.373323E-2,1.5715618E-3,3.7708536E-2,-3.5649687E-2,-1.844664E-2,6.7948274E-2,7.92581E-2,2.1346482E-2,4.388233E-2,-8.550806E-3,9.437915E-2,3.3269558E-2,7.048653E-2,-2.9398888E-2,6.4219914E-2,9.321236E-2],"categories":[],"categories_nodes":[],"categories_segments":[],"categories_sizes":[],"default_left":[0,0,0,0,0,0,0,0,0,0,0,0,0,0,0,0,0,0,0,0,0,0,0,0,0,0,0,0,0,0,0,0,0,0,0,0,0,0,0,0,0,0,0,0,0,0,0,0,0,0,0,0,0,0,0,0,0,0,0,0,0,0,0,0,0,0,0,0,0,0,0,0,0,0,0,0,0,0,0,0,0,0,0,0,0,0,0,0,0,0,0,0,0,0,0,0,0,0,0,0,0,0,0,0,0,0,0,0,0,0,0,0,0],"id":0,"left_children":[1,3,5,7,9,11,13,15,17,19,21,23,25,27,29,31,33,35,37,39,41,43,45,47,49,51,-1,53,55,-1,57,59,61,63,65,67,69,71,73,75,77,79,81,83,85,87,89,91,93,95,97,99,101,103,105,107,109,111,-1,-1,-1,-1,-1,-1,-1,-1,-1,-1,-1,-1,-1,-1,-1,-1,-1,-1,-1,-1,-1,-1,-1,-1,-1,-1,-1,-1,-1,-1,-1,-1,-1,-1,-1,-1,-1,-1,-1,-1,-1,-1,-1,-1,-1,-1,-1,-1,-1,-1,-1,-1,-1,-1,-1],"loss_changes":[9.178654E3,1.1359863E3,2.4928613E2,6.342158E2,2.0956808E2,8.6237915E1,4.062744E1,3.6266945E1,4.96312E2,1.1006775E1,1.07746956E2,1.6666992E1,4.0040443E1,3.812317E1,3.5776367E0,1.4253906E1,2.1316275E1,2.6500473E2,2.0809229E2,1.2864075E1,6.632442E0,6.811181E1,3.274391E1,8.744644E0,1.1578415E1,2.7614016E1,0E0,1.2088516E1,1.4058594E1,0E0,1.1078613E1,3.455738E0,1.5641785E0,1.228561E1,9.9671135E0,1.22881516E2,1.2856467E2,1.1027637E2,2.110691E0,2.462677E0,1.4107681E1,3.2382555E0,3.2784708E0,2.4500046E1,5.682171E0,6.2045712E0,5.5820236E0,6.005335E0,6.3216066E0,1.8269806E0,9.046295E0,1.755547E1,1.460436E1,2.5942078E0,9.948446E0,7.637512E0,1.5248084E1,9.247498E0,0E0,0E0,0E0,0E0,0E0,0E0,0E0,0E0,0E0,0E0,0E0,0E0,0E0,0E0,0E0,0E0,0E0,0E0,0E0,0E0,0E0,0E0,0E0,0E0,0E0,0E0,0E0,0E0,0E0,0E0,0E0,0E0,0E0,0E0,0E0,0E0,0E0,0E0,0E0,0E0,0E0,0E0,0E0,0E0,0E0,0E0,0E0,0E0,0E0,0E0,0E0,0E0,0E0,0E0,0E0],"parents":[2147483647,0,0,1,1,2,2,3,3,4,4,5,5,6,6,7,7,8,8,9,9,10,10,11,11,12,12,13,13,14,14,15,15,16,16,17,17,18,18,19,19,20,20,21,21,22,22,23,23,24,24,25,25,27,27,28,28,30,30,31,31,32,32,33,33,34,34,35,35,36,36,37,37,38,38,39,39,40,40,41,41,42,42,43,43,44,44,45,45,46,46,47,47,48,48,49,49,50,50,51,51,52,52,53,53,54,54,55,55,56,56,57,57],"right_children":[2,4,6,8,10,12,14,16,18,20,22,24,26,28,30,32,34,36,38,40,42,44,46,48,50,52,-1,54,56,-1,58,60,62,64,66,68,70,72,74,76,78,80,82,84,86,88,90,92,94,96,98,100,102,104,106,108,110,112,-1,-1,-1,-1,-1,-1,-1,-1,-1,-1,-1,-1,-1,-1,-1,-1,-1,-1,-1,-1,-1,-1,-1,-1,-1,-1,-1,-1,-1,-1,-1,-1,-1,-1,-1,-1,-1,-1,-1,-1,-1,-1,-1,-1,-1,-1,-1,-1,-1,-1,-1,-1,-1,-1,-1],"split_conditions":[-1.8303332E-1,1.0721E0,-2.3482064E-2,-8.944687E-1,-4.233375E-1,-2.102828E-1,1.8882252E-1,-1.8636979E-1,-5.204131E-1,1.2491345E0,1.5352726E0,-3.6591458E-1,3.7296896E0,-6.161921E-1,-1.1983766E-1,-6.0356295E-1,-9.859352E-1,-2.2172688E-1,3.7296896E0,-5.6916916E-1,6.670813E-1,2.4561028E0,3.1741056E-1,-3.9306906E-1,-3.8324445E-1,6.01157E-1,8.825718E-2,-4.233375E-1,5.456712E-1,1.0241377E-1,8.333894E-1,2.0347338E0,1.6460668E0,1.482312E0,3.7296896E0,-1.1307082E-1,3.7296896E0,-2.644102E-1,4.9612904E-1,1.4489422E0,4.771217E-2,-8.042537E-1,-1.7707565E0,-8.223933E-1,9.8651975E-1,2.4561028E0,8.747827E-1,1.3484977E0,1.4610989E0,-1.4209168E0,1.7299108E-1,-7.9635966E-1,-1.4068131E0,5.502596E-1,-3.528453E-1,1.8935702E0,7.563147E-2,-1.54789E-1,1.0085028E-1,3.8746808E-2,-2.4260743E-2,8.393397E-2,1.3789097E-2,6.17554E-2,-2.339856E-2,-1.5377643E-2,6.1787196E-2,-1.0506752E-2,5.9848238E-2,-5.7776153E-2,8.1834905E-2,-5.8607645E-2,-8.212831E-2,9.789371E-2,4.705428E-2,9.754792E-2,1.3789097E-2,7.526827E-2,1.2431881E-2,-8.461473E-3,7.342526E-2,-5.7205457E-2,1.4862205E-2,3.7744325E-2,-4.3241765E-2,8.644248E-2,-6.052353E-3,-2.364423E-2,6.295988E-2,9.014266E-2,4.080211E-2,8.1549965E-2,-1.7150346E-2,-9.354582E-3,6.361874E-2,1.3789097E-2,8.813786E-2,6.373323E-2,1.5715618E-3,3.7708536E-2,-3.5649687E-2,-1.844664E-2,6.7948274E-2,7.92581E-2,2.1346482E-2,4.388233E-2,-8.550806E-3,9.437915E-2,3.3269558E-2,7.048653E-2,-2.9398888E-2,6.4219914E-2,9.321236E-2],"split_indices":[0,19,0,0,29,29,0,29,8,9,34,34,24,16,29,34,0,29,24,29,1,10,16,1,29,16,0,29,29,0,0,11,11,26,24,5,24,29,29,1,8,3,11,0,29,10,6,8,15,6,8,8,11,8,19,9,8,16,0,0,0,0,0,0,0,0,0,0,0,0,0,0,0,0,0,0,0,0,0,0,0,0,0,0,0,0,0,0,0,0,0,0,0,0,0,0,0,0,0,0,0,0,0,0,0,0,0,0,0,0,0,0,0],"split_type":[0,0,0,0,0,0,0,0,0,0,0,0,0,0,0,0,0,0,0,0,0,0,0,0,0,0,0,0,0,0,0,0,0,0,0,0,0,0,0,0,0,0,0,0,0,0,0,0,0,0,0,0,0,0,0,0,0,0,0,0,0,0,0,0,0,0,0,0,0,0,0,0,0,0,0,0,0,0,0,0,0,0,0,0,0,0,0,0,0,0,0,0,0,0,0,0,0,0,0,0,0,0,0,0,0,0,0,0,0,0,0,0,0],"sum_hessian":[5.3070522E3,3.465036E3,1.8420162E3,3.1210764E3,3.4395944E2,2.1974493E2,1.6222714E3,1.4441806E2,2.9766584E3,1.5888481E2,1.8507462E2,1.2496278E2,9.478215E1,2.29722E2,1.3925493E3,7.5326866E1,6.90912E1,6.335438E2,2.3431145E3,1.4716176E2,1.1723055E1,1.2920303E2,5.5871582E1,2.5441525E1,9.9521255E1,8.3557945E1,1.1224202E1,5.2878464E1,1.7684354E2,9.7575726E2,4.1679202E2,2.269783E1,5.2629036E1,3.0180632E1,3.891057E1,2.7162567E2,3.6191815E2,2.3234097E3,1.970471E1,8.77982E1,5.9363556E1,6.734521E0,4.988534E0,1.1473628E2,1.4466749E1,1.2970189E1,4.2901394E1,9.228788E0,1.6212736E1,7.1585464E1,2.7935791E1,6.285553E1,2.0702417E1,1.7958723E1,3.491974E1,1.6112965E2,1.5713882E1,1.4142494E2,2.753671E2,2.0951843E1,1.7459869E0,5.13819E1,1.2471335E0,2.569095E1,4.489681E0,3.5169167E1,3.7414007E0,1.7734239E2,9.4283295E1,3.45456E2,1.6462162E1,7.497767E2,1.573633E3,1.3718469E1,5.986241E0,8.655107E1,1.2471335E0,4.7889927E1,1.1473629E1,1.2471335E0,5.4873877E0,1.4965602E0,3.4919739E0,9.478215E0,1.0525807E2,1.2720762E1,1.7459869E0,1.1473629E1,1.4965602E0,3.2924324E1,9.977068E0,7.732228E0,1.4965602E0,1.3469042E1,2.7436938E0,1.2471335E0,7.033833E1,1.970471E1,8.231081E0,8.729935E0,5.4125595E1,6.734521E0,1.39678955E1,1.4716176E1,3.2425473E0,1.8707003E1,1.6212736E1,1.5439513E2,6.734521E0,1.0725348E1,4.988534E0,6.16084E1,7.981654E1],"tree_param":{"num_deleted":"0","num_feature":"38","num_nodes":"113","size_leaf_vector":"1"}},{"base_weights":[-7.5343465E-3,-9.093395E-1,1.6977829E0,-1.1880909E0,3.9945883E-1,9.8197716E-1,1.8630345E0,7.231786E-1,-1.2766519E0,1.1923239E0,-5.0573343E-1,1.2251464E0,-1.5327045E-1,1.9027139E0,1.5607778E0,1.2242835E0,2.312212E-1,-1.4036142E0,-5.563924E-1,1.7523177E0,6.476453E-1,-7.17224E-1,1.8184239E0,6.390152E-1,1.4944885E0,-3.9907667E-1,8.1503645E-2,1.7054291E0,9.64657E-2,9.613609E-1,1.8264451E0,1.3095576E0,-1.8043806E-1,9.3117124E-1,-3.266106E-1,5.349412E-1,-1.4438262E0,1.8126602E-1,-1.0782499E0,1.7786229E0,5.844703E-2,1.6542813E0,3.4766233E-1,-9.8312956E-1,4.3118322E-1,9.461865E-2,2.0904379E-2,4.399675E-1,1.3138436E0,-3.2614095E-3,1.5478518E0,-5.7808864E-1,9.289902E-1,1.755502E0,3.6976177E-1,1.263866E0,3.8627742E-3,1.353946E0,9.378948E-2,7.2399296E-2,3.767959E-2,3.4934867E-2,-3.667771E-2,6.2080096E-2,-1.8092126E-2,2.6688268E-2,-2.8905267E-2,8.767843E-2,9.127925E-3,-7.3185876E-2,7.8603335E-2,-7.263049E-3,5.9714645E-2,-5.750345E-2,6.233238E-2,9.4566315E-2,6.572214E-2,-3.0530218E-2,3.504408E-2,3.918057E-2,8.73517E-2,5.1307124E-3,9.3672015E-2,5.060124E-2,-5.688736E-2,6.1006E-3,9.207182E-2,6.581521E-3,4.7089048E-2,7.113941E-2,-1.0088137E-2,-3.0179327E-2,4.487187E-2,8.846186E-2,6.283807E-2,2.6877841E-2,-3.6449797E-2,6.674855E-2,-1.6843308E-2,9.477164E-2,7.880987E-2,-8.924461E-3,5.4969467E-2,2.8057277E-2,7.2501644E-2,5.8644485E-2,-4.6605673E-2,7.741385E-2,8.001027E-3],"categories":[],"categories_nodes":[],"categories_segments":[],"categories_sizes":[],"default_left":[0,0,0,0,0,0,0,0,0,0,0,0,0,0,0,0,0,0,0,0,0,0,0,0,0,0,0,0,0,0,0,0,0,0,0,0,0,0,0,0,0,0,0,0,0,0,0,0,0,0,0,0,0,0,0,0,0,0,0,0,0,0,0,0,0,0,0,0,0,0,0,0,0,0,0,0,0,0,0,0,0,0,0,0,0,0,0,0,0,0,0,0,0,0,0,0,0,0,0,0,0,0,0,0,0,0,0,0,0],"id":1,"left_children":[1,3,5,7,9,11,13,15,17,19,21,23,25,27,29,31,33,35,37,39,41,43,45,47,49,51,-1,53,-1,55,57,59,61,63,65,67,69,71,73,75,77,79,81,83,85,-1,-1,87,89,91,93,95,97,99,101,103,105,107,-1,-1,-1,-1,-1,-1,-1,-1,-1,-1,-1,-1,-1,-1,-1,-1,-1,-1,-1,-1,-1,-1,-1,-1,-1,-1,-1,-1,-1,-1,-1,-1,-1,-1,-1,-1,-1,-1,-1,-1,-1,-1,-1,-1,-1,-1,-1,-1,-1,-1,-1],"loss_changes":[8.207426E3,1.2740417E3,2.1653418E2,4.8809277E2,4.410482E2,9.6354706E1,1.5004395E1,3.1295357E1,2.5079297E2,9.87406E1,1.4249887E2,4.4356018E1,2.7979193E1,3.6381836E0,2.6824951E1,7.809807E0,2.6023617E1,1.8303857E2,1.5953651E2,7.0638123E0,5.0028854E1,8.1043915E1,1.7191315E0,1.1794769E1,1.5662567E1,1.3754097E1,0E0,1.0417786E1,0E0,1.6571236E1,3.3380127E-1,3.5055313E0,2.6994283E0,1.2279709E1,8.400549E0,2.0397348E1,1.3973145E2,5.718615E1,4.1935425E1,5.7990723E0,1.9297361E0,1.7165375E0,4.8551636E1,6.737651E1,2.1720413E1,0E0,0E0,1.1114663E1,3.6682549E0,4.725489E0,9.966858E0,8.743742E0,4.0405E0,1.0074463E0,3.0947943E0,4.8752823E0,1.7224392E1,3.2901878E0,0E0,0E0,0E0,0E0,0E0,0E0,0E0,0E0,0E0,0E0,0E0,0E0,0E0,0E0,0E0,0E0,0E0,0E0,0E0,0E0,0E0,0E0,0E0,0E0,0E0,0E0,0E0,0E0,0E0,0E0,0E0,0E0,0E0,0E0,0E0,0E0,0E0,0E0,0E0,0E0,0E0,0E0,0E0,0E0,0E0,0E0,0E0,0E0,0E0,0E0,0E0],"parents":[2147483647,0,0,1,1,2,2,3,3,4,4,5,5,6,6,7,7,8,8,9,9,10,10,11,11,12,12,13,13,14,14,15,15,16,16,17,17,18,18,19,19,20,20,21,21,22,22,23,23,24,24,25,25,27,27,29,29,30,30,31,31,32,32,33,33,34,34,35,35,36,36,37,37,38,38,39,39,40,40,41,41,42,42,43,43,44,44,47,47,48,48,49,49,50,50,51,51,52,52,53,53,54,54,55,55,56,56,57,57],"right_children":[2,4,6,8,10,12,14,16,18,20,22,24,26,28,30,32,34,36,38,40,42,44,46,48,50,52,-1,54,-1,56,58,60,62,64,66,68,70,72,74,76,78,80,82,84,86,-1,-1,88,90,92,94,96,98,100,102,104,106,108,-1,-1,-1,-1,-1,-1,-1,-1,-1,-1,-1,-1,-1,-1,-1,-1,-1,-1,-1,-1,-1,-1,-1,-1,-1,-1,-1,-1,-1,-1,-1,-1,-1,-1,-1,-1,-1,-1,-1,-1,-1,-1,-1,-1,-1,-1,-1,-1,-1,-1,-1],"split_conditions":[-1.8303332E-1,5.0142056E-1,8.5343376E-2,-8.944687E-1,-7.450558E-2,5.2404565E-1,5.456712E-1,-1.8636979E-1,-1.1307082E-1,-4.798789E-1,3.7296896E0,-1.21141E-1,3.7296896E0,2.77012E-1,6.8711257E-1,2.2332125E0,-9.859352E-1,-1.5737847E0,-2.2172688E-1,2.030684E0,-7.6013327E-1,1.3315027E0,1.6632239E0,9.188538E-1,-1.1467052E0,1.039847E0,8.1503645E-2,1.367808E0,9.64657E-2,1.0437001E0,8.931728E-1,7.6501685E-1,-1.6971333E0,1.482312E0,-8.695047E-1,-2.3623626E0,3.7296896E0,8.585966E-1,3.7296896E0,-5.54551E-1,9.971722E-2,-6.733915E-1,2.4561028E0,-8.519171E-1,2.7426422E0,9.461865E-2,2.0904379E-2,-4.170663E-2,1.2455168E0,8.311341E-1,-3.9030203E-1,-1.0574032E0,1.0421264E-1,-4.233375E-1,-8.244178E-1,1.8882252E-1,-4.5317385E-1,1.1130139E0,9.378948E-2,7.2399296E-2,3.767959E-2,3.4934867E-2,-3.667771E-2,6.2080096E-2,-1.8092126E-2,2.6688268E-2,-2.8905267E-2,8.767843E-2,9.127925E-3,-7.3185876E-2,7.8603335E-2,-7.263049E-3,5.9714645E-2,-5.750345E-2,6.233238E-2,9.4566315E-2,6.572214E-2,-3.0530218E-2,3.504408E-2,3.918057E-2,8.73517E-2,5.1307124E-3,9.3672015E-2,5.060124E-2,-5.688736E-2,6.1006E-3,9.207182E-2,6.581521E-3,4.7089048E-2,7.113941E-2,-1.0088137E-2,-3.0179327E-2,4.487187E-2,8.846186E-2,6.283807E-2,2.6877841E-2,-3.6449797E-2,6.674855E-2,-1.6843308E-2,9.477164E-2,7.880987E-2,-8.924461E-3,5.4969467E-2,2.8057277E-2,7.2501644E-2,5.8644485E-2,-4.6605673E-2,7.741385E-2,8.001027E-3],"split_indices":[0,35,0,0,29,29,29,29,5,29,24,35,24,0,0,1,0,35,29,9,0,35,29,5,12,3,0,11,0,11,0,9,19,26,22,35,24,4,24,29,3,15,10,0,35,0,0,0,36,5,29,23,19,29,17,0,35,5,0,0,0,0,0,0,0,0,0,0,0,0,0,0,0,0,0,0,0,0,0,0,0,0,0,0,0,0,0,0,0,0,0,0,0,0,0,0,0,0,0,0,0,0,0,0,0,0,0,0,0],"split_type":[0,0,0,0,0,0,0,0,0,0,0,0,0,0,0,0,0,0,0,0,0,0,0,0,0,0,0,0,0,0,0,0,0,0,0,0,0,0,0,0,0,0,0,0,0,0,0,0,0,0,0,0,0,0,0,0,0,0,0,0,0,0,0,0,0,0,0,0,0,0,0,0,0,0,0,0,0,0,0,0,0,0,0,0,0,0,0,0,0,0,0,0,0,0,0,0,0,0,0,0,0,0,0,0,0,0,0,0,0],"sum_hessian":[5.334896E3,3.4898577E3,1.8450382E3,2.8771638E3,6.1269385E2,3.4735846E2,1.4976798E3,1.27095726E2,2.750068E3,3.2644278E2,2.8625104E2,2.8601505E2,6.1343426E1,1.3192034E3,1.7847646E2,6.2225063E1,6.487067E1,2.3371443E3,4.1292386E2,1.598653E2,1.665775E2,2.6300946E2,2.3241585E1,9.11124E1,1.9490265E2,5.4594624E1,6.7488027E0,1.6447188E2,1.1547314E3,5.6228485E1,1.2224797E2,5.872772E1,3.4973435E0,2.8473602E1,3.639706E1,4.72449E1,2.2898992E3,1.7135793E2,2.4156593E2,1.5737134E2,2.493948E0,3.7207565E1,1.2936993E2,2.136778E2,4.933166E1,2.1742058E1,1.4995272E0,7.1634895E1,1.9477495E1,6.7375884E0,1.8816505E2,4.860747E1,5.9871545E0,1.5822581E2,6.2460685E0,4.2485844E1,1.3742642E1,1.4248646E1,1.0799932E2,4.573568E1,1.2992041E1,1.2489817E0,2.2483618E0,2.2993107E1,5.4804945E0,7.978804E0,2.8418257E1,9.705283E0,3.753962E1,2.2754065E3,1.4492719E1,1.3023586E2,4.1122063E1,2.3481744E2,6.748483E0,1.2415243E2,3.3218918E1,1.2459368E0,1.2480111E0,4.491762E0,3.2715805E1,1.1238721E2,1.698273E1,1.4969466E1,1.9870833E2,4.135244E1,7.9792194E0,4.5153088E1,2.6481812E1,1.8228443E1,1.2490518E0,4.2408714E0,2.4967167E0,1.0399495E2,8.417011E1,5.486208E0,4.312126E1,4.491922E0,1.4952322E0,8.3494804E1,7.473101E1,3.9975958E0,2.2484725E0,9.73888E0,3.2746964E1,5.9980307E0,7.7446117E0,1.199884E1,2.2498055E0],"tree_param":{"num_deleted":"0","num_feature":"38","num_nodes":"109","size_leaf_vector":"1"}},{"base_weights":[-8.067988E-3,6.56053E-1,-5.6792164E-1,-1.07590165E-2,1.2668241E0,-7.175415E-1,1.796554E0,7.405903E-1,-3.9497024E-1,1.6375195E0,6.341154E-1,-8.393304E-1,9.151494E-1,1.8281903E0,3.0501524E-1,9.675582E-1,1.260381E-2,9.720602E-3,-7.390439E-1,1.7072078E0,1.2530245E0,1.1745766E0,-2.7230987E-1,-1.12428494E-1,-1.0308472E0,1.3414328E0,-2.4831755E-1,7.879555E-1,9.220025E-2,-3.3347692E-2,6.275498E-2,1.42446E0,6.933947E-1,1.2340678E0,-2.7238378E-1,1.0130873E0,-1.4127854E-1,8.039746E-1,-8.1001484E-1,1.750167E0,1.4398755E0,7.62486E-1,1.5296469E0,5.769944E-1,1.4302812E0,-8.464223E-1,7.718681E-1,6.942948E-2,-1.0099753E0,-8.741163E-1,-1.5088005E0,1.1029451E0,1.6902964E0,-5.3740454E-1,1.2174186E0,6.448277E-2,-1.1542103E-2,7.69965E-2,2.725035E-2,2.4531396E-2,5.6206502E-2,7.351934E-2,2.3674857E-2,-2.9648682E-2,1.7039841E-2,5.7482447E-2,-2.161071E-2,7.90197E-3,-3.417487E-2,-1.1996342E-2,5.401791E-2,-5.442404E-3,-4.7273915E-2,7.247387E-2,9.0007715E-2,7.7408336E-2,2.056141E-2,5.427239E-2,1.3677433E-2,8.314267E-2,4.362167E-2,5.178324E-2,-3.1117415E-2,8.357157E-2,5.2099716E-2,5.4058045E-2,-4.864145E-2,7.035354E-2,1.4724429E-2,4.1512955E-2,-3.8817932E-3,-5.936387E-2,2.3462627E-2,-3.0816063E-2,-5.780938E-2,-6.126915E-3,-7.6246016E-2,4.6706494E-2,9.053054E-2,7.089646E-2,9.420633E-2,-8.567604E-3,-7.470286E-2,7.688938E-2,1.0060533E-2],"categories":[],"categories_nodes":[],"categories_segments":[],"categories_sizes":[],"default_left":[0,0,0,0,0,0,0,0,0,0,0,0,0,0,0,0,0,0,0,0,0,0,0,0,0,0,0,0,0,0,0,0,0,0,0,0,0,0,0,0,0,0,0,0,0,0,0,0,0,0,0,0,0,0,0,0,0,0,0,0,0,0,0,0,0,0,0,0,0,0,0,0,0,0,0,0,0,0,0,0,0,0,0,0,0,0,0,0,0,0,0,0,0,0,0,0,0,0,0,0,0,0,0,0,0],"id":2,"left_children":[1,3,5,7,9,11,13,15,17,19,21,23,25,27,29,31,33,35,37,39,41,43,45,47,49,51,53,55,-1,-1,-1,57,59,61,63,65,67,69,71,73,75,77,79,81,83,85,87,89,91,93,95,97,99,101,103,-1,-1,-1,-1,-1,-1,-1,-1,-1,-1,-1,-1,-1,-1,-1,-1,-1,-1,-1,-1,-1,-1,-1,-1,-1,-1,-1,-1,-1,-1,-1,-1,-1,-1,-1,-1,-1,-1,-1,-1,-1,-1,-1,-1,-1,-1,-1,-1,-1,-1],"loss_changes":[1.9624629E3,9.832655E2,1.0144478E3,3.3376276E2,2.94505E2,5.364824E2,7.498108E0,6.4624466E1,1.0652492E2,1.913379E1,2.2917337E2,3.4898462E2,9.3324524E1,1.2939453E0,5.219918E0,3.6367004E1,3.3054146E1,5.3550995E1,4.5929596E1,5.1672363E0,1.58736725E1,4.392276E1,1.0574744E2,8.560719E1,1.4734839E2,9.565292E0,2.2314957E1,2.4682982E0,0E0,0E0,0E0,1.0421005E1,1.5896111E1,2.5321445E0,1.5344225E1,9.622055E0,4.9977737E1,5.649543E0,3.748947E1,5.9888916E0,1.0314529E1,7.168064E0,5.491791E0,4.9841965E1,1.739859E1,2.8729828E1,1.860344E1,4.8925983E1,2.3729927E1,1.08137085E2,1.0734009E1,8.400269E0,1.7410278E-1,1.4939249E1,2.5319614E0,0E0,0E0,0E0,0E0,0E0,0E0,0E0,0E0,0E0,0E0,0E0,0E0,0E0,0E0,0E0,0E0,0E0,0E0,0E0,0E0,0E0,0E0,0E0,0E0,0E0,0E0,0E0,0E0,0E0,0E0,0E0,0E0,0E0,0E0,0E0,0E0,0E0,0E0,0E0,0E0,0E0,0E0,0E0,0E0,0E0,0E0,0E0,0E0,0E0,0E0],"parents":[2147483647,0,0,1,1,2,2,3,3,4,4,5,5,6,6,7,7,8,8,9,9,10,10,11,11,12,12,13,13,14,14,15,15,16,16,17,17,18,18,19,19,20,20,21,21,22,22,23,23,24,24,25,25,26,26,27,27,31,31,32,32,33,33,34,34,35,35,36,36,37,37,38,38,39,39,40,40,41,41,42,42,43,43,44,44,45,45,46,46,47,47,48,48,49,49,50,50,51,51,52,52,53,53,54,54],"right_children":[2,4,6,8,10,12,14,16,18,20,22,24,26,28,30,32,34,36,38,40,42,44,46,48,50,52,54,56,-1,-1,-1,58,60,62,64,66,68,70,72,74,76,78,80,82,84,86,88,90,92,94,96,98,100,102,104,-1,-1,-1,-1,-1,-1,-1,-1,-1,-1,-1,-1,-1,-1,-1,-1,-1,-1,-1,-1,-1,-1,-1,-1,-1,-1,-1,-1,-1,-1,-1,-1,-1,-1,-1,-1,-1,-1,-1,-1,-1,-1,-1,-1,-1,-1,-1,-1,-1,-1],"split_conditions":[-2.644102E-1,1.0938222E-1,3.7296896E0,-3.311926E-1,-4.2952728E-1,1.2976242E0,3.285404E0,1.3587648E0,1.2522668E-1,3.4684753E-1,7.827456E-3,-5.827236E-1,7.786962E-1,-2.1082368E0,-4.134493E-1,7.6810345E-2,-1.3165082E0,-6.3432723E-1,-1.3745042E0,-4.798789E-1,-1.0945358E-1,-3.9906695E-1,-3.8516972E-2,1.482312E0,1.482312E0,1.0628672E0,-1.4554414E-1,1.3564038E-2,9.220025E-2,-3.3347692E-2,6.275498E-2,-4.1760948E-1,9.043629E-1,-1.5541565E0,-3.6591458E-1,-3.0271575E-1,1.2312477E0,-6.884498E-1,2.4013725E-1,3.470306E-1,7.827456E-3,3.9983207E-1,-4.9956372E-1,-4.5901653E-1,-1.4355135E-1,-3.7973106E-1,1.0054161E-1,-1.357614E0,5.84679E-1,4.626291E-1,-1.3165082E0,4.3410525E0,7.5476356E-3,1.3918884E0,-4.1760948E-1,6.448277E-2,-1.1542103E-2,7.69965E-2,2.725035E-2,2.4531396E-2,5.6206502E-2,7.351934E-2,2.3674857E-2,-2.9648682E-2,1.7039841E-2,5.7482447E-2,-2.161071E-2,7.90197E-3,-3.417487E-2,-1.1996342E-2,5.401791E-2,-5.442404E-3,-4.7273915E-2,7.247387E-2,9.0007715E-2,7.7408336E-2,2.056141E-2,5.427239E-2,1.3677433E-2,8.314267E-2,4.362167E-2,5.178324E-2,-3.1117415E-2,8.357157E-2,5.2099716E-2,5.4058045E-2,-4.864145E-2,7.035354E-2,1.4724429E-2,4.1512955E-2,-3.8817932E-3,-5.936387E-2,2.3462627E-2,-3.0816063E-2,-5.780938E-2,-6.126915E-3,-7.6246016E-2,4.6706494E-2,9.053054E-2,7.089646E-2,9.420633E-2,-8.567604E-3,-7.470286E-2,7.688938E-2,1.0060533E-2],"split_indices":[29,34,24,8,29,34,26,1,1,8,8,8,11,16,12,9,34,2,19,29,16,16,16,26,26,16,16,22,0,0,0,8,16,34,34,29,8,23,9,34,8,2,29,9,9,19,9,17,34,29,34,25,3,29,8,0,0,0,0,0,0,0,0,0,0,0,0,0,0,0,0,0,0,0,0,0,0,0,0,0,0,0,0,0,0,0,0,0,0,0,0,0,0,0,0,0,0,0,0,0,0,0,0,0,0],"split_type":[0,0,0,0,0,0,0,0,0,0,0,0,0,0,0,0,0,0,0,0,0,0,0,0,0,0,0,0,0,0,0,0,0,0,0,0,0,0,0,0,0,0,0,0,0,0,0,0,0,0,0,0,0,0,0,0,0,0,0,0,0,0,0,0,0,0,0,0,0,0,0,0,0,0,0,0,0,0,0,0,0,0,0,0,0,0,0,0,0,0,0,0,0,0,0,0,0,0,0,0,0,0,0,0,0],"sum_hessian":[5.276124E3,2.4132534E3,2.8628704E3,1.1541681E3,1.2590854E3,2.6931492E3,1.6972122E2,3.9019315E2,7.639749E2,7.9293036E2,4.6615506E2,2.5066538E3,1.8649532E2,1.659751E2,3.7461276E0,2.9720346E2,9.2989685E1,3.5150974E2,4.1246518E2,6.683537E2,1.24576675E2,2.91845E2,1.7431006E2,5.230406E2,1.9836132E3,1.363756E2,5.011971E1,3.246646E0,1.6272845E2,1.9990435E0,1.7470843E0,1.0988353E2,1.8731993E2,1.6961597E1,7.602809E1,4.5233128E1,3.0627658E2,1.7682903E1,3.9478226E2,5.7104266E2,9.731099E1,4.6274258E1,7.8302414E1,8.843312E1,2.0341188E2,1.1259319E2,6.171687E1,4.35686E2,8.7354614E1,1.4959038E3,4.877094E2,8.347355E1,5.290205E1,4.239208E1,7.72763E0,1.9972523E0,1.2493937E0,9.646668E1,1.3416847E1,1.288183E2,5.850163E1,1.2228715E1,4.7328835E0,4.9947132E1,2.608096E1,4.151507E1,3.7180586E0,1.9779662E2,1.0847998E2,3.729285E0,1.3953619E1,6.421343E1,3.3056882E2,8.567518E1,4.8536752E2,8.758537E1,9.725618E0,2.7132313E1,1.9141945E1,6.3834118E1,1.4468299E1,6.406783E1,2.4365294E1,1.2344209E2,7.996979E1,6.464381E0,1.06128815E2,2.5645458E1,3.607141E1,6.982208E1,3.6586392E2,7.818109E1,9.17352E0,7.832492E2,7.126546E2,5.7049003E0,4.820045E2,6.926923E1,1.4204317E1,2.5452253E1,2.7449797E1,3.151307E1,1.0879008E1,5.485131E0,2.2424996E0],"tree_param":{"num_deleted":"0","num_feature":"38","num_nodes":"105","size_leaf_vector":"1"}},{"base_weights":[4.907742E-3,-8.500206E-1,1.5975906E0,-1.0147383E0,6.249918E-1,9.232602E-1,1.7549257E0,6.275377E-1,-1.1199582E0,2.7690265E-1,1.305064E0,4.3076846E-1,1.2045128E0,1.4200004E0,1.7839786E0,1.0701184E0,1.1488648E-1,-1.2795117E0,-3.57718E-1,1.4739347E0,8.183612E-2,3.97327E-1,1.5051252E0,6.697973E-1,-5.1530534E-1,6.432862E-1,1.4437428E0,5.6741804E-1,1.5979047E0,1.6961949E0,9.193922E-2,5.312992E-1,1.3268269E0,-2.648759E-1,9.2799217E-1,-1.3055309E0,1.4187634E0,4.8414183E-1,-5.6915915E-1,1.4484728E-2,1.5427045E0,-2.478208E-1,7.0321715E-1,-3.6909238E-1,1.2325559E0,1.162337E0,1.645863E0,9.585947E-1,1.9074251E-1,-6.826434E-1,5.943765E-2,2.6748577E-1,1.168182E0,9.2681783E-1,1.5683422E0,9.6976644E-1,-3.937113E-1,1.6432927E0,3.8308424E-1,1.2765155E0,8.7565914E-2,3.5764795E-2,-2.2344848E-2,-1.9826898E-2,6.861275E-2,2.806958E-2,-2.771086E-2,-4.4329915E-2,5.40556E-2,1.357905E-3,-6.717787E-2,-2.1560872E-3,7.603349E-2,1.0504431E-2,5.4585993E-2,-3.2103464E-2,7.364738E-2,8.178838E-2,3.4978863E-2,-2.0976406E-2,7.455816E-2,-3.018052E-2,4.536992E-2,4.3090686E-2,-4.7210865E-2,7.497545E-2,6.674214E-3,7.905411E-2,3.324293E-2,2.3029314E-2,8.355753E-2,2.1082135E-2,7.582101E-2,-2.4160903E-2,2.4688471E-2,-4.1217163E-2,5.5474997E-2,3.4148095E-3,6.8482965E-2,6.904233E-2,1.9816741E-2,-2.1607304E-2,6.2397864E-2,1.5644636E-2,8.065025E-2,2.4053497E-2,7.29694E-2,-6.1522365E-2,2.1860147E-2,1.2585118E-2,8.384673E-2,-4.2612266E-2,6.5502904E-2,7.082665E-2,1.2869673E-2],"categories":[],"categories_nodes":[],"categories_segments":[],"categories_sizes":[],"default_left":[0,0,0,0,0,0,0,0,0,0,0,0,0,0,0,0,0,0,0,0,0,0,0,0,0,0,0,0,0,0,0,0,0,0,0,0,0,0,0,0,0,0,0,0,0,0,0,0,0,0,0,0,0,0,0,0,0,0,0,0,0,0,0,0,0,0,0,0,0,0,0,0,0,0,0,0,0,0,0,0,0,0,0,0,0,0,0,0,0,0,0,0,0,0,0,0,0,0,0,0,0,0,0,0,0,0,0,0,0,0,0,0,0,0,0],"id":3,"left_children":[1,3,5,7,9,11,13,15,17,19,21,23,25,27,29,31,33,35,37,39,41,43,45,47,49,51,53,55,57,59,-1,61,63,65,67,69,71,73,75,-1,77,79,81,83,85,87,89,91,93,95,-1,97,99,101,103,105,107,109,111,113,-1,-1,-1,-1,-1,-1,-1,-1,-1,-1,-1,-1,-1,-1,-1,-1,-1,-1,-1,-1,-1,-1,-1,-1,-1,-1,-1,-1,-1,-1,-1,-1,-1,-1,-1,-1,-1,-1,-1,-1,-1,-1,-1,-1,-1,-1,-1,-1,-1,-1,-1,-1,-1,-1,-1],"loss_changes":[7.17891E3,8.341675E2,1.9376172E2,5.340469E2,8.136827E1,4.8030334E1,1.1985352E1,4.2188187E1,3.5235645E2,5.3499004E1,2.057994E1,2.9508343E1,2.8949524E1,1.7901108E1,3.4677734E0,1.3121635E1,2.727154E1,1.7024146E2,8.990455E1,2.168808E0,4.083861E1,1.4806081E1,2.6796112E0,1.4120491E1,8.389744E0,1.3162603E1,8.54422E0,9.259807E0,4.9968567E0,1.0236328E1,0E0,6.425522E0,5.792389E0,1.4759908E1,8.762125E0,1.2045068E2,3.549591E0,1.6690968E1,6.0934296E1,0E0,1.2193451E0,3.9575527E1,1.8978058E1,9.634904E0,3.0150204E0,5.4301033E0,1.181076E0,1.8605915E1,8.434837E0,7.221324E0,0E0,8.931212E0,4.0824738E0,1.4763454E1,6.427582E0,3.2392855E0,5.742549E0,4.1687317E0,6.818155E0,9.092911E0,0E0,0E0,0E0,0E0,0E0,0E0,0E0,0E0,0E0,0E0,0E0,0E0,0E0,0E0,0E0,0E0,0E0,0E0,0E0,0E0,0E0,0E0,0E0,0E0,0E0,0E0,0E0,0E0,0E0,0E0,0E0,0E0,0E0,0E0,0E0,0E0,0E0,0E0,0E0,0E0,0E0,0E0,0E0,0E0,0E0,0E0,0E0,0E0,0E0,0E0,0E0,0E0,0E0,0E0,0E0],"parents":[2147483647,0,0,1,1,2,2,3,3,4,4,5,5,6,6,7,7,8,8,9,9,10,10,11,11,12,12,13,13,14,14,15,15,16,16,17,17,18,18,19,19,20,20,21,21,22,22,23,23,24,24,25,25,26,26,27,27,28,28,29,29,31,31,32,32,33,33,34,34,35,35,36,36,37,37,38,38,40,40,41,41,42,42,43,43,44,44,45,45,46,46,47,47,48,48,49,49,51,51,52,52,53,53,54,54,55,55,56,56,57,57,58,58,59,59],"right_children":[2,4,6,8,10,12,14,16,18,20,22,24,26,28,30,32,34,36,38,40,42,44,46,48,50,52,54,56,58,60,-1,62,64,66,68,70,72,74,76,-1,78,80,82,84,86,88,90,92,94,96,-1,98,100,102,104,106,108,110,112,114,-1,-1,-1,-1,-1,-1,-1,-1,-1,-1,-1,-1,-1,-1,-1,-1,-1,-1,-1,-1,-1,-1,-1,-1,-1,-1,-1,-1,-1,-1,-1,-1,-1,-1,-1,-1,-1,-1,-1,-1,-1,-1,-1,-1,-1,-1,-1,-1,-1,-1,-1,-1,-1,-1,-1],"split_conditions":[-1.8303332E-1,1.0721E0,8.5343376E-2,-8.6457354E-1,1.5352726E0,-2.5143993E-1,2.0956771E-1,-9.585035E-1,-1.1307082E-1,-8.408576E-1,1.9296038E-1,1.4097724E0,-1.2826617E-1,-7.979742E-1,8.931728E-1,-6.0356295E-1,-5.7101924E-2,3.7296896E0,-4.7284907E-1,-1.3983841E0,3.6885136E-1,-7.0715636E-2,8.651378E-1,-5.65658E-1,3.7296896E0,-4.170663E-2,7.778499E-3,-5.7101924E-2,2.351083E0,-9.535131E-1,9.193922E-2,4.6846166E-1,-1.8319021E0,-4.7284907E-1,-9.535131E-1,-1.3165082E0,-1.5507591E0,1.5331082E0,3.7296896E0,1.4484728E-2,6.7153686E-1,2.4561028E0,-8.14181E-1,-6.9455904E-1,1.0012087E0,-3.031568E-1,-1.1289251E0,-9.5032203E-1,-1.1921439E-1,2.0105693E0,5.943765E-2,1.3839408E0,1.4959397E0,-8.14181E-1,-1.9266905E0,-7.1162134E-1,-5.38466E-1,-1.5996876E0,8.499124E-1,1.4097724E0,8.7565914E-2,3.5764795E-2,-2.2344848E-2,-1.9826898E-2,6.861275E-2,2.806958E-2,-2.771086E-2,-4.4329915E-2,5.40556E-2,1.357905E-3,-6.717787E-2,-2.1560872E-3,7.603349E-2,1.0504431E-2,5.4585993E-2,-3.2103464E-2,7.364738E-2,8.178838E-2,3.4978863E-2,-2.0976406E-2,7.455816E-2,-3.018052E-2,4.536992E-2,4.3090686E-2,-4.7210865E-2,7.497545E-2,6.674214E-3,7.905411E-2,3.324293E-2,2.3029314E-2,8.355753E-2,2.1082135E-2,7.582101E-2,-2.4160903E-2,2.4688471E-2,-4.1217163E-2,5.5474997E-2,3.4148095E-3,6.8482965E-2,6.904233E-2,1.9816741E-2,-2.1607304E-2,6.2397864E-2,1.5644636E-2,8.065025E-2,2.4053497E-2,7.29694E-2,-6.1522365E-2,2.1860147E-2,1.2585118E-2,8.384673E-2,-4.2612266E-2,6.5502904E-2,7.082665E-2,1.2869673E-2],"split_indices":[0,19,0,0,34,16,0,0,5,0,16,7,34,16,0,34,19,24,7,1,5,2,16,36,24,0,16,19,7,16,0,7,12,7,16,34,13,6,24,0,22,10,2,0,11,15,2,16,0,34,0,20,9,2,11,13,13,1,18,7,0,0,0,0,0,0,0,0,0,0,0,0,0,0,0,0,0,0,0,0,0,0,0,0,0,0,0,0,0,0,0,0,0,0,0,0,0,0,0,0,0,0,0,0,0,0,0,0,0,0,0,0,0,0,0],"split_type":[0,0,0,0,0,0,0,0,0,0,0,0,0,0,0,0,0,0,0,0,0,0,0,0,0,0,0,0,0,0,0,0,0,0,0,0,0,0,0,0,0,0,0,0,0,0,0,0,0,0,0,0,0,0,0,0,0,0,0,0,0,0,0,0,0,0,0,0,0,0,0,0,0,0,0,0,0,0,0,0,0,0,0,0,0,0,0,0,0,0,0,0,0,0,0,0,0,0,0,0,0,0,0,0,0,0,0,0,0,0,0,0,0,0,0],"sum_hessian":[5.270296E3,3.4297327E3,1.840563E3,3.0854824E3,3.4425043E2,3.494985E2,1.4910645E3,1.8548344E2,2.899999E3,2.286335E2,1.1561693E2,1.2796139E2,2.2153711E2,1.22998405E2,1.368066E3,9.896116E1,8.6522285E1,2.397476E3,5.0252286E2,3.1118399E1,1.9751509E2,2.141893E1,9.4198E1,1.0238538E2,2.5576002E1,6.73126E1,1.5422452E2,2.1957834E1,1.0104057E2,5.381107E2,8.299553E2,3.2924286E1,6.603687E1,5.9436577E1,2.708571E1,2.3750896E3,2.2386536E1,1.0061826E2,4.0190457E2,1.9939756E0,2.9124422E1,1.2944351E2,6.807158E1,1.1460597E1,9.958334E0,3.011276E1,6.4085236E1,6.325263E1,3.9132755E1,2.383483E1,1.7411728E0,4.0107285E1,2.7205315E1,3.159304E1,1.2263148E2,1.5471967E1,6.485868E0,9.706147E1,3.9791052E0,6.527779E1,4.728329E2,2.7937971E1,4.986315E0,1.4975222E0,6.453935E1,1.5171455E1,4.426512E1,1.7349521E0,2.535076E1,6.589784E1,2.3091917E3,1.4964346E0,2.08901E1,7.026874E1,3.0349525E1,3.8871185E2,1.3192742E1,2.5382608E1,3.741814E0,1.18501434E2,1.0942081E1,8.934105E0,5.9137478E1,3.4908514E0,7.9697456E0,7.719102E0,2.2392316E0,1.5167523E1,1.4945237E1,1.7400347E0,6.23452E1,3.312399E1,3.012864E1,1.1953159E1,2.7179596E1,2.2588818E1,1.2460116E0,3.486779E1,5.239493E0,2.0710108E1,6.4952064E0,5.972707E0,2.5620333E1,4.4877815E0,1.1814369E2,8.735502E0,6.736464E0,2.9920342E0,3.4938335E0,2.4913034E0,9.457017E1,1.7403916E0,2.2387135E0,5.7049747E1,8.228041E0],"tree_param":{"num_deleted":"0","num_feature":"38","num_nodes":"115","size_leaf_vector":"1"}},{"base_weights":[1.8417907E-3,-8.013988E-1,1.5693588E0,-1.0555362E0,3.6486825E-1,9.705277E-1,1.6865187E0,8.028914E-1,-1.1298951E0,1.0195308E0,-5.285089E-1,1.1859523E0,-2.6191952E-2,1.4519501E0,1.7198431E0,9.600116E-1,-7.455039E-1,-5.5421025E-1,-1.3029748E0,1.5487126E0,5.565982E-1,-8.12362E-1,8.5455596E-1,5.236657E-1,1.3250805E0,-2.9351214E-1,7.9260714E-2,6.6643775E-1,1.5868242E0,1.6488432E0,8.8163786E-2,-3.310967E-2,1.0551788E0,-1.0958213E0,1.978514E-1,6.5418236E-2,-9.9941254E-1,1.2872071E0,-1.3215005E0,1.6474952E0,1.1809812E0,9.1389877E-1,-3.9781892E-1,-9.7018117E-1,1.3047198E0,-7.758024E-1,1.052001E0,1.4167513E0,1.7800653E-1,1.3968316E0,2.587706E-1,-9.990165E-1,1.6584876E-1,7.658584E-2,3.3301067E-1,1.6023719E0,5.003843E-3,1.3029653E0,8.456194E-2,4.9521085E-2,-2.1282118E-2,5.7611722E-2,-3.2249116E-3,-6.806799E-2,-9.826853E-3,-2.8969103E-2,4.083114E-2,2.4374744E-2,-2.7606953E-2,-5.3110458E-2,6.0255654E-2,5.6115994E-3,8.77949E-2,-6.694917E-2,6.68668E-2,8.415163E-2,3.5774365E-2,-3.3152297E-3,6.6287555E-2,3.5554945E-2,8.421654E-2,-3.969313E-2,6.2463205E-2,4.256866E-2,-5.4931343E-2,7.838132E-2,1.8202927E-2,1.4952744E-2,-5.8148872E-2,3.5074115E-2,8.484625E-2,7.672789E-2,1.1316069E-2,4.0911164E-2,-1.312919E-2,7.377096E-2,3.302295E-2,-4.015861E-3,6.877607E-2,3.1618383E-2,-6.0388934E-2,2.230418E-2,-3.7075635E-2,2.8734837E-2,-5.7897955E-2,8.1735894E-2,3.4351606E-2,-5.662254E-3,6.9632344E-2],"categories":[],"categories_nodes":[],"categories_segments":[],"categories_sizes":[],"default_left":[0,0,0,0,0,0,0,0,0,0,0,0,0,0,0,0,0,0,0,0,0,0,0,0,0,0,0,0,0,0,0,0,0,0,0,0,0,0,0,0,0,0,0,0,0,0,0,0,0,0,0,0,0,0,0,0,0,0,0,0,0,0,0,0,0,0,0,0,0,0,0,0,0,0,0,0,0,0,0,0,0,0,0,0,0,0,0,0,0,0,0,0,0,0,0,0,0,0,0,0,0,0,0,0,0,0,0,0,0],"id":4,"left_children":[1,3,5,7,9,11,13,15,17,19,21,23,25,27,29,31,33,35,37,39,41,43,45,47,49,51,-1,53,55,57,-1,59,61,63,65,67,69,71,73,75,77,79,81,83,85,87,89,91,93,95,97,99,101,-1,103,105,-1,107,-1,-1,-1,-1,-1,-1,-1,-1,-1,-1,-1,-1,-1,-1,-1,-1,-1,-1,-1,-1,-1,-1,-1,-1,-1,-1,-1,-1,-1,-1,-1,-1,-1,-1,-1,-1,-1,-1,-1,-1,-1,-1,-1,-1,-1,-1,-1,-1,-1,-1,-1],"loss_changes":[6.5803496E3,1.0245803E3,1.2259473E2,3.9302832E2,3.6257074E2,6.2751007E1,9.069336E0,2.7416496E1,2.711726E2,8.67341E1,1.0372272E2,2.143988E1,2.3248955E1,1.9122437E1,1.0708008E0,9.49353E0,3.7441912E0,1.745495E2,1.0233887E2,4.0947266E0,6.593541E1,7.418942E1,1.5358685E1,1.3131655E1,1.4776398E1,1.5141333E1,0E0,8.040282E0,3.580719E0,5.2025146E0,0E0,4.327178E0,1.0002136E1,1.6275845E0,2.270577E0,6.944447E1,5.2241455E1,8.283915E0,9.861011E1,3.0533752E0,7.0835037E0,2.070942E1,3.5612476E1,4.8592957E1,3.279337E0,2.6182044E0,8.01487E0,1.3291435E0,9.3543005E0,9.7404175E0,5.2989674E0,7.018343E0,7.6652145E0,0E0,8.83481E0,3.6169739E0,0E0,7.7153244E0,0E0,0E0,0E0,0E0,0E0,0E0,0E0,0E0,0E0,0E0,0E0,0E0,0E0,0E0,0E0,0E0,0E0,0E0,0E0,0E0,0E0,0E0,0E0,0E0,0E0,0E0,0E0,0E0,0E0,0E0,0E0,0E0,0E0,0E0,0E0,0E0,0E0,0E0,0E0,0E0,0E0,0E0,0E0,0E0,0E0,0E0,0E0,0E0,0E0,0E0,0E0],"parents":[2147483647,0,0,1,1,2,2,3,3,4,4,5,5,6,6,7,7,8,8,9,9,10,10,11,11,12,12,13,13,14,14,15,15,16,16,17,17,18,18,19,19,20,20,21,21,22,22,23,23,24,24,25,25,27,27,28,28,29,29,31,31,32,32,33,33,34,34,35,35,36,36,37,37,38,38,39,39,40,40,41,41,42,42,43,43,44,44,45,45,46,46,47,47,48,48,49,49,50,50,51,51,52,52,54,54,55,55,57,57],"right_children":[2,4,6,8,10,12,14,16,18,20,22,24,26,28,30,32,34,36,38,40,42,44,46,48,50,52,-1,54,56,58,-1,60,62,64,66,68,70,72,74,76,78,80,82,84,86,88,90,92,94,96,98,100,102,-1,104,106,-1,108,-1,-1,-1,-1,-1,-1,-1,-1,-1,-1,-1,-1,-1,-1,-1,-1,-1,-1,-1,-1,-1,-1,-1,-1,-1,-1,-1,-1,-1,-1,-1,-1,-1,-1,-1,-1,-1,-1,-1,-1,-1,-1,-1,-1,-1,-1,-1,-1,-1,-1,-1],"split_conditions":[-1.4599E-1,5.0142056E-1,8.5343376E-2,-9.1216445E-1,5.1610567E-2,4.626291E-1,2.77012E-1,1.482312E0,-4.800307E-1,-4.798789E-1,1.3315027E0,-7.4489623E-1,3.7296896E0,-7.979742E-1,9.4974345E-1,-1.7457958E0,-4.1166973E-1,-2.328486E-1,-1.9058175E0,-5.6916916E-1,4.771217E-2,3.7296896E0,1.0599759E0,-7.694381E-1,1.2885699E0,-7.8768057E-1,7.9260714E-2,6.908981E-1,2.3768322E0,-9.535131E-1,8.8163786E-2,-8.925915E-1,1.6180986E0,3.0052778E-1,-6.3432723E-1,6.670813E-1,3.7296896E0,1.0946859E0,3.7296896E0,1.1514604E0,-9.016774E-1,2.4561028E0,1.1654862E0,-8.6457354E-1,3.3389118E-1,-8.060161E-1,2.4858663E0,-3.3279267E-1,-4.3558812E-1,1.2972646E0,1.2229421E0,-8.2671076E-1,6.858676E-1,7.658584E-2,-8.3440775E-1,2.351083E0,5.003843E-3,-2.335205E0,8.456194E-2,4.9521085E-2,-2.1282118E-2,5.7611722E-2,-3.2249116E-3,-6.806799E-2,-9.826853E-3,-2.8969103E-2,4.083114E-2,2.4374744E-2,-2.7606953E-2,-5.3110458E-2,6.0255654E-2,5.6115994E-3,8.77949E-2,-6.694917E-2,6.68668E-2,8.415163E-2,3.5774365E-2,-3.3152297E-3,6.6287555E-2,3.5554945E-2,8.421654E-2,-3.969313E-2,6.2463205E-2,4.256866E-2,-5.4931343E-2,7.838132E-2,1.8202927E-2,1.4952744E-2,-5.8148872E-2,3.5074115E-2,8.484625E-2,7.672789E-2,1.1316069E-2,4.0911164E-2,-1.312919E-2,7.377096E-2,3.302295E-2,-4.015861E-3,6.877607E-2,3.1618383E-2,-6.0388934E-2,2.230418E-2,-3.7075635E-2,2.8734837E-2,-5.7897955E-2,8.1735894E-2,3.4351606E-2,-5.662254E-3,6.9632344E-2],"split_indices":[0,35,0,0,29,29,0,26,8,29,35,16,24,16,0,16,35,29,35,29,8,24,34,8,8,1,0,11,28,16,0,22,1,17,2,1,24,8,24,1,2,10,35,0,1,22,34,36,29,36,17,35,8,0,15,7,0,37,0,0,0,0,0,0,0,0,0,0,0,0,0,0,0,0,0,0,0,0,0,0,0,0,0,0,0,0,0,0,0,0,0,0,0,0,0,0,0,0,0,0,0,0,0,0,0,0,0,0,0],"split_type":[0,0,0,0,0,0,0,0,0,0,0,0,0,0,0,0,0,0,0,0,0,0,0,0,0,0,0,0,0,0,0,0,0,0,0,0,0,0,0,0,0,0,0,0,0,0,0,0,0,0,0,0,0,0,0,0,0,0,0,0,0,0,0,0,0,0,0,0,0,0,0,0,0,0,0,0,0,0,0,0,0,0,0,0,0,0,0,0,0,0,0,0,0,0,0,0,0,0,0,0,0,0,0,0,0,0,0,0,0],"sum_hessian":[5.224261E3,3.4545432E3,1.7697181E3,2.8365378E3,6.1800555E2,2.9110385E2,1.4786144E3,1.0875142E2,2.7277864E3,3.565709E2,2.6143466E2,2.392122E2,5.189164E1,1.8947577E2,1.2891385E3,9.9077705E1,9.673714E0,6.315095E2,2.0962769E3,1.6528587E2,1.9128502E2,2.1725832E2,4.4176342E1,4.235506E1,1.9685715E2,4.5209564E1,6.682074E0,2.8636541E1,1.6083923E2,5.0407764E2,7.850609E2,8.721029E0,9.0356674E1,6.936286E0,2.7374275E0,2.6438876E2,3.6712076E2,1.4400363E1,2.0818765E3,1.2754399E2,3.7741882E1,1.3921152E2,5.20735E1,2.0269037E2,1.4567939E1,4.455645E0,3.97207E1,1.0954091E1,3.140097E1,1.841555E2,1.2701638E1,1.7364971E1,2.7844595E1,6.965768E0,2.1670774E1,1.5909767E2,1.7415483E0,5.8505154E1,4.4557248E2,1.9952487E0,6.7257805E0,8.312239E1,7.2342873E0,4.9583654E0,1.9779207E0,1.2415652E0,1.4958622E0,1.5717578E2,1.07213E2,3.5745667E2,9.664089E0,4.45969E0,9.940673E0,2.06877E3,1.3106392E1,1.2208314E2,5.460848E0,3.9814155E0,3.3760468E1,1.1172522E2,2.74863E1,4.239708E1,9.676422E0,1.29804E1,1.8970998E2,1.0864805E1,3.7031336E0,1.2402154E0,3.2154295E0,2.7086681E1,1.2634018E1,9.704631E0,1.2494602E0,1.2451187E1,1.8949783E1,1.6549034E2,1.8665165E1,1.0455141E1,2.2464972E0,1.7398305E0,1.562514E1,2.1662573E1,6.1820226E0,1.917677E1,2.4940035E0,1.5290836E2,6.1893234E0,3.468553E0,5.5036602E1],"tree_param":{"num_deleted":"0","num_feature":"38","num_nodes":"109","size_leaf_vector":"1"}},{"base_weights":[7.502223E-3,-7.6667976E-1,1.4895523E0,-9.162802E-1,6.7381E-1,9.532791E-1,1.6290257E0,6.072195E-1,-1.0165657E0,1.2666851E0,-2.5371325E-1,1.1690515E0,4.3469954E-2,1.5380609E0,8.457291E-2,1.8216258E-1,1.282825E0,-6.0615855E-1,-1.2605865E0,1.532393E0,9.3147683E-1,-7.4601644E-1,7.6333994E-1,9.878539E-1,1.5094512E0,-1.8178026E-1,7.877212E-2,1.634451E0,1.2498974E0,5.7725924E-1,-4.3032706E-1,1.5503906E0,9.6860516E-1,-9.375489E-1,5.7420444E-2,-1.2983453E0,1.1559155E0,1.5589597E0,7.7766836E-1,3.0876014E-1,1.2036636E0,-9.428676E-1,6.9709495E-2,4.2684108E-1,8.4062316E-2,1.0584552E0,3.697478E-1,8.076667E-2,1.0193986E0,1.6348985E-1,-9.069695E-1,4.173109E-3,1.6386399E0,1.3752912E0,6.5660244E-1,3.552117E-2,-2.9933035E-2,8.164771E-4,-5.4546293E-2,7.958435E-2,2.1611875E-2,6.507818E-2,1.9733226E-2,-4.53947E-3,-5.6036394E-2,4.3946546E-2,-2.6045648E-2,-4.0190145E-2,-6.795701E-2,7.079185E-2,2.5074217E-2,8.255298E-2,6.5677986E-2,-1.856675E-2,5.8927394E-2,3.8213156E-2,-1.840812E-2,-4.4400706E-3,6.2679894E-2,5.734479E-2,-5.3461302E-2,5.18469E-2,-9.232449E-3,5.6123327E-2,9.75322E-3,4.5133937E-2,-1.2185438E-2,6.8802424E-2,1.9207247E-2,4.8735246E-2,-4.7466806E-3,-6.461217E-2,1.0228928E-2,8.203232E-2,2.5484545E-2,6.935962E-2,5.292044E-3,4.650676E-2,-2.6057035E-2],"categories":[],"categories_nodes":[],"categories_segments":[],"categories_sizes":[],"default_left":[0,0,0,0,0,0,0,0,0,0,0,0,0,0,0,0,0,0,0,0,0,0,0,0,0,0,0,0,0,0,0,0,0,0,0,0,0,0,0,0,0,0,0,0,0,0,0,0,0,0,0,0,0,0,0,0,0,0,0,0,0,0,0,0,0,0,0,0,0,0,0,0,0,0,0,0,0,0,0,0,0,0,0,0,0,0,0,0,0,0,0,0,0,0,0,0,0,0,0],"id":5,"left_children":[1,3,5,7,9,11,13,15,17,19,21,23,25,27,-1,29,31,33,35,37,39,41,43,45,47,49,-1,51,53,55,57,59,61,63,65,67,69,71,73,75,77,79,-1,81,-1,83,85,-1,87,89,91,-1,93,95,97,-1,-1,-1,-1,-1,-1,-1,-1,-1,-1,-1,-1,-1,-1,-1,-1,-1,-1,-1,-1,-1,-1,-1,-1,-1,-1,-1,-1,-1,-1,-1,-1,-1,-1,-1,-1,-1,-1,-1,-1,-1,-1,-1,-1],"loss_changes":[5.962862E3,7.362682E2,1.318252E2,4.731775E2,1.7725331E2,7.267642E1,5.42749E0,5.48024E1,2.898977E2,1.6070038E1,6.3806953E1,1.697641E1,2.5151535E1,1.4245728E1,0E0,2.8997896E1,4.706856E0,2.3845923E2,1.6749194E2,9.537964E-1,1.4783806E1,3.7382103E1,1.215897E1,8.261948E0,3.6520538E0,1.6102066E1,0E0,2.6971436E0,1.0348618E1,1.18007965E1,1.393236E1,1.0768204E0,6.4856834E0,1.12058044E2,1.7246124E2,5.2775146E1,4.140793E0,1.6749573E-1,3.048838E0,9.08166E0,4.104576E0,2.208577E1,0E0,1.2072149E1,0E0,9.586945E0,7.368114E0,0E0,4.1962376E0,9.319194E0,9.130936E0,0E0,1.4904785E-1,1.7256622E0,9.60209E0,0E0,0E0,0E0,0E0,0E0,0E0,0E0,0E0,0E0,0E0,0E0,0E0,0E0,0E0,0E0,0E0,0E0,0E0,0E0,0E0,0E0,0E0,0E0,0E0,0E0,0E0,0E0,0E0,0E0,0E0,0E0,0E0,0E0,0E0,0E0,0E0,0E0,0E0,0E0,0E0,0E0,0E0,0E0,0E0],"parents":[2147483647,0,0,1,1,2,2,3,3,4,4,5,5,6,6,7,7,8,8,9,9,10,10,11,11,12,12,13,13,15,15,16,16,17,17,18,18,19,19,20,20,21,21,22,22,23,23,24,24,25,25,27,27,28,28,29,29,30,30,31,31,32,32,33,33,34,34,35,35,36,36,37,37,38,38,39,39,40,40,41,41,43,43,45,45,46,46,48,48,49,49,50,50,52,52,53,53,54,54],"right_children":[2,4,6,8,10,12,14,16,18,20,22,24,26,28,-1,30,32,34,36,38,40,42,44,46,48,50,-1,52,54,56,58,60,62,64,66,68,70,72,74,76,78,80,-1,82,-1,84,86,-1,88,90,92,-1,94,96,98,-1,-1,-1,-1,-1,-1,-1,-1,-1,-1,-1,-1,-1,-1,-1,-1,-1,-1,-1,-1,-1,-1,-1,-1,-1,-1,-1,-1,-1,-1,-1,-1,-1,-1,-1,-1,-1,-1,-1,-1,-1,-1,-1,-1],"split_conditions":[-1.579706E-1,1.0599759E0,1.4840816E-1,-8.6457354E-1,5.1610567E-2,4.4323438E-1,8.931728E-1,-5.7101924E-2,-2.4366137E-1,-4.798789E-1,8.499124E-1,5.8815634E-1,3.7296896E0,-5.8352772E-2,8.457291E-2,-9.332763E-1,-9.859352E-1,1.0938222E-1,3.7296896E0,2.286095E0,1.2976242E0,3.7296896E0,2.4858663E0,1.4097724E0,4.8107103E-1,1.4097724E0,7.877212E-2,-2.2960658E0,1.0158093E0,1.482312E0,4.626291E-1,1.4255413E0,-2.4366137E-1,4.876431E-2,-4.233375E-1,-4.7284907E-1,1.0358504E0,-5.6916916E-1,-2.0273726E0,6.558568E-1,-7.515803E-1,-8.784233E-1,6.9709495E-2,1.6362801E-1,8.4062316E-2,1.7427448E0,-3.8324445E-1,8.076667E-2,-3.9030203E-1,-7.3098415E-1,1.2016285E-1,4.173109E-3,3.2291114E0,3.594874E0,1.4097724E0,3.552117E-2,-2.9933035E-2,8.164771E-4,-5.4546293E-2,7.958435E-2,2.1611875E-2,6.507818E-2,1.9733226E-2,-4.53947E-3,-5.6036394E-2,4.3946546E-2,-2.6045648E-2,-4.0190145E-2,-6.795701E-2,7.079185E-2,2.5074217E-2,8.255298E-2,6.5677986E-2,-1.856675E-2,5.8927394E-2,3.8213156E-2,-1.840812E-2,-4.4400706E-3,6.2679894E-2,5.734479E-2,-5.3461302E-2,5.18469E-2,-9.232449E-3,5.6123327E-2,9.75322E-3,4.5133937E-2,-1.2185438E-2,6.8802424E-2,1.9207247E-2,4.8735246E-2,-4.7466806E-3,-6.461217E-2,1.0228928E-2,8.203232E-2,2.5484545E-2,6.935962E-2,5.292044E-3,4.650676E-2,-2.6057035E-2],"split_indices":[0,34,0,0,29,29,0,19,29,29,18,19,24,29,0,0,0,34,24,6,34,24,34,7,22,7,0,15,11,26,29,3,29,9,29,7,29,29,37,11,13,0,0,22,0,9,29,0,29,22,21,0,1,29,7,0,0,0,0,0,0,0,0,0,0,0,0,0,0,0,0,0,0,0,0,0,0,0,0,0,0,0,0,0,0,0,0,0,0,0,0,0,0,0,0,0,0,0,0],"split_type":[0,0,0,0,0,0,0,0,0,0,0,0,0,0,0,0,0,0,0,0,0,0,0,0,0,0,0,0,0,0,0,0,0,0,0,0,0,0,0,0,0,0,0,0,0,0,0,0,0,0,0,0,0,0,0,0,0,0,0,0,0,0,0,0,0,0,0,0,0,0,0,0,0,0,0,0,0,0,0,0,0,0,0,0,0,0,0,0,0,0,0,0,0,0,0,0,0,0,0],"sum_hessian":[5.1949575E3,3.4127263E3,1.7822313E3,3.0919766E3,3.2074973E2,3.6946777E2,1.4127635E3,1.9064932E2,2.9013274E3,1.9545119E2,1.2529853E2,2.9841095E2,7.10568E1,5.854267E2,8.2733685E2,1.17803154E2,7.2846176E1,1.0831357E3,1.8181915E3,1.07036026E2,8.841516E1,8.460978E1,4.0688755E1,1.9729248E2,1.01118484E2,6.2716724E1,8.340075E0,4.3518594E2,1.5024074E2,7.164492E1,4.6158234E1,3.7219128E1,3.562705E1,7.2210486E2,3.610309E2,1.7906742E3,2.7517317E1,1.0236705E2,4.6689835E0,2.7540834E1,6.087433E1,7.79954E1,6.6143823E0,3.0845865E1,9.842889E0,1.7642809E2,2.0864388E1,8.1264084E1,1.9854399E1,4.3012558E1,1.970417E1,1.2285216E0,4.3395743E2,1.22939255E2,2.730148E1,6.471256E1,6.9323564E0,2.8120287E1,1.8037945E1,3.548507E1,1.7340574E0,2.1744637E1,1.388241E1,1.2869553E2,5.9340936E2,1.4894206E2,2.1208887E2,1.975882E2,1.593086E3,1.8862291E1,8.655026E0,7.0267365E1,3.2099686E1,1.2267021E0,3.4422812E0,1.6385777E1,1.1155059E1,2.2354364E0,5.8638893E1,3.9866228E0,7.400877E1,1.5092247E1,1.5753617E1,1.6397128E2,1.2456807E1,1.0912691E1,9.951696E0,1.196869E1,7.8857093E0,9.7221365E0,3.329042E1,1.4511703E1,5.1924667E0,4.3273505E2,1.222385E0,1.21705505E2,1.2337501E0,2.232638E1,4.9750986E0],"tree_param":{"num_deleted":"0","num_feature":"38","num_nodes":"99","size_leaf_vector":"1"}},{"base_weights":[-2.5930041E-3,-7.6989156E-1,1.4091724E0,-1.0060838E0,2.7741826E-1,7.9791844E-1,1.5551715E0,5.510324E-1,-1.0804123E0,9.103348E-1,-4.572203E-1,1.0031393E0,-1.275902E-1,1.3072947E0,1.5893453E0,2.8488314E-1,1.2362869E0,-5.1577586E-1,-1.2450988E0,1.4532444E0,4.6141034E-1,-6.1131424E-1,1.3770587E0,1.1273228E0,1.4669223E-1,-3.8866776E-1,7.077765E-2,4.0854278E-1,1.4472016E0,1.5212432E0,8.179049E-2,4.365899E-1,-9.282804E-1,7.695703E-2,6.337796E-1,3.7121635E-2,-9.2605084E-1,-1.2598107E0,1.1921179E0,1.4854962E0,-2.2325424E-2,8.7687993E-1,-4.603521E-1,-7.655217E-1,9.247946E-1,1.4826661E0,9.909688E-3,5.077812E-1,1.2586044E0,-3.1458143E-2,7.294836E-2,-5.739401E-1,4.9063095E-1,1.0258573E0,-2.1668646E-1,3.3736047E-1,1.4663876E0,1.2078457E0,1.5601566E0,3.7125167E-2,-5.562721E-3,-5.9322596E-2,5.934138E-4,6.1965413E-2,4.125615E-3,-1.6014745E-2,4.4888288E-2,-4.9253885E-2,4.6832766E-2,5.495872E-2,-6.371897E-2,7.570166E-2,1.9586675E-2,7.855236E-2,5.4187126E-2,2.474104E-2,6.0861416E-2,5.3833622E-2,-3.565003E-2,3.737056E-2,-4.4246577E-2,1.6275734E-2,7.631973E-2,7.61353E-2,2.3290023E-2,3.7201557E-2,-3.0120999E-2,6.591858E-2,2.3290006E-2,2.040471E-2,-2.992247E-2,1.6548576E-2,-3.880479E-2,4.918165E-2,-3.7245143E-2,1.6672018E-3,6.731659E-2,-3.8304843E-2,6.631873E-2,5.250405E-2,-2.5432814E-2,7.818115E-2,6.0028207E-2,8.553061E-4,6.490536E-2,7.8537695E-2,4.9735036E-2],"categories":[],"categories_nodes":[],"categories_segments":[],"categories_sizes":[],"default_left":[0,0,0,0,0,0,0,0,0,0,0,0,0,0,0,0,0,0,0,0,0,0,0,0,0,0,0,0,0,0,0,0,0,0,0,0,0,0,0,0,0,0,0,0,0,0,0,0,0,0,0,0,0,0,0,0,0,0,0,0,0,0,0,0,0,0,0,0,0,0,0,0,0,0,0,0,0,0,0,0,0,0,0,0,0,0,0,0,0,0,0,0,0,0,0,0,0,0,0,0,0,0,0,0,0,0,0],"id":6,"left_children":[1,3,5,7,9,11,13,15,17,19,21,23,25,27,29,31,33,35,37,39,41,43,45,47,49,51,-1,53,55,57,-1,59,61,-1,63,65,67,69,71,73,-1,75,77,79,81,83,-1,85,87,89,-1,91,93,95,97,99,101,103,105,-1,-1,-1,-1,-1,-1,-1,-1,-1,-1,-1,-1,-1,-1,-1,-1,-1,-1,-1,-1,-1,-1,-1,-1,-1,-1,-1,-1,-1,-1,-1,-1,-1,-1,-1,-1,-1,-1,-1,-1,-1,-1,-1,-1,-1,-1,-1,-1],"loss_changes":[5.513555E3,8.159934E2,1.5870459E2,3.1204395E2,2.829349E2,6.614929E1,1.0168213E1,2.2128498E1,2.3821777E2,7.896393E1,8.051393E1,3.0106598E1,2.6324389E1,2.2141937E1,1.517334E0,1.6984127E1,5.261883E0,1.3199692E2,7.278223E1,9.696014E0,6.945795E1,6.246768E1,2.4640007E0,1.9567078E1,8.741136E0,9.32342E0,0E0,1.0159318E1,2.828064E0,4.550659E0,0E0,1.3615396E1,2.5219574E0,0E0,4.2821484E0,7.6808784E1,3.7643738E1,6.9329346E1,2.6126194E0,3.2876892E0,0E0,1.5604591E1,2.277747E1,4.3564987E1,8.241785E0,1.1220932E-1,0E0,1.228119E1,9.06723E0,8.6497135E0,0E0,8.727331E0,6.9447765E0,4.1312504E0,1.2559963E1,2.9162192E0,2.0799255E0,6.717758E0,1.2297363E0,0E0,0E0,0E0,0E0,0E0,0E0,0E0,0E0,0E0,0E0,0E0,0E0,0E0,0E0,0E0,0E0,0E0,0E0,0E0,0E0,0E0,0E0,0E0,0E0,0E0,0E0,0E0,0E0,0E0,0E0,0E0,0E0,0E0,0E0,0E0,0E0,0E0,0E0,0E0,0E0,0E0,0E0,0E0,0E0,0E0,0E0,0E0,0E0],"parents":[2147483647,0,0,1,1,2,2,3,3,4,4,5,5,6,6,7,7,8,8,9,9,10,10,11,11,12,12,13,13,14,14,15,15,16,16,17,17,18,18,19,19,20,20,21,21,22,22,23,23,24,24,25,25,27,27,28,28,29,29,31,31,32,32,34,34,35,35,36,36,37,37,38,38,39,39,41,41,42,42,43,43,44,44,45,45,47,47,48,48,49,49,51,51,52,52,53,53,54,54,55,55,56,56,57,57,58,58],"right_children":[2,4,6,8,10,12,14,16,18,20,22,24,26,28,30,32,34,36,38,40,42,44,46,48,50,52,-1,54,56,58,-1,60,62,-1,64,66,68,70,72,74,-1,76,78,80,82,84,-1,86,88,90,-1,92,94,96,98,100,102,104,106,-1,-1,-1,-1,-1,-1,-1,-1,-1,-1,-1,-1,-1,-1,-1,-1,-1,-1,-1,-1,-1,-1,-1,-1,-1,-1,-1,-1,-1,-1,-1,-1,-1,-1,-1,-1,-1,-1,-1,-1,-1,-1,-1,-1,-1,-1,-1,-1],"split_conditions":[-1.8303332E-1,4.5991647E-1,8.5343376E-2,-8.944687E-1,-4.16332E-2,5.2404565E-1,2.77012E-1,-5.7101924E-2,-4.800307E-1,-4.8990703E-1,3.7296896E0,8.7656635E-1,3.7296896E0,-8.489366E-1,9.7952825E-1,1.482312E0,-1.8636979E-1,-2.2172688E-1,3.7296896E0,2.0821018E0,4.771217E-2,1.6220315E0,1.6632239E0,-6.898063E-1,1.2666783E0,6.01157E-1,7.077765E-2,-6.754744E-1,-1.5996876E0,-9.535131E-1,8.179049E-2,-9.585035E-1,-1.6435765E-1,7.695703E-2,-6.724194E-1,6.219564E-1,3.7296896E0,-1.9058175E0,4.6920946E-1,-5.6916916E-1,-2.2325424E-2,-1.1307082E-1,-7.915334E-1,-8.519171E-1,2.4858663E0,1.4582025E0,9.909688E-3,-6.592385E-1,1.3725371E0,-3.7235215E-1,7.294836E-2,-1.3570822E0,1.0332522E0,-1.5303237E0,1.6727531E0,-3.4136954E-1,4.771217E-2,-2.335205E0,1.3508071E0,3.7125167E-2,-5.562721E-3,-5.9322596E-2,5.934138E-4,6.1965413E-2,4.125615E-3,-1.6014745E-2,4.4888288E-2,-4.9253885E-2,4.6832766E-2,5.495872E-2,-6.371897E-2,7.570166E-2,1.9586675E-2,7.855236E-2,5.4187126E-2,2.474104E-2,6.0861416E-2,5.3833622E-2,-3.565003E-2,3.737056E-2,-4.4246577E-2,1.6275734E-2,7.631973E-2,7.61353E-2,2.3290023E-2,3.7201557E-2,-3.0120999E-2,6.591858E-2,2.3290006E-2,2.040471E-2,-2.992247E-2,1.6548576E-2,-3.880479E-2,4.918165E-2,-3.7245143E-2,1.6672018E-3,6.731659E-2,-3.8304843E-2,6.631873E-2,5.250405E-2,-2.5432814E-2,7.818115E-2,6.0028207E-2,8.553061E-4,6.490536E-2,7.8537695E-2,4.9735036E-2],"split_indices":[0,35,0,0,29,29,0,19,8,29,24,8,24,16,0,26,29,29,24,9,8,35,29,16,16,16,0,19,1,16,0,0,13,0,9,5,24,35,29,29,0,5,0,0,34,2,0,15,9,29,0,12,13,17,6,29,8,37,29,0,0,0,0,0,0,0,0,0,0,0,0,0,0,0,0,0,0,0,0,0,0,0,0,0,0,0,0,0,0,0,0,0,0,0,0,0,0,0,0,0,0,0,0,0,0,0,0],"split_type":[0,0,0,0,0,0,0,0,0,0,0,0,0,0,0,0,0,0,0,0,0,0,0,0,0,0,0,0,0,0,0,0,0,0,0,0,0,0,0,0,0,0,0,0,0,0,0,0,0,0,0,0,0,0,0,0,0,0,0,0,0,0,0,0,0,0,0,0,0,0,0,0,0,0,0,0,0,0,0,0,0,0,0,0,0,0,0,0,0,0,0,0,0,0,0,0,0,0,0,0,0,0,0,0,0,0,0],"sum_hessian":[5.0878467E3,3.2965933E3,1.7912533E3,2.6899805E3,6.0661285E2,3.4660196E2,1.4446514E3,1.2226298E2,2.5677175E3,3.257386E2,2.8087424E2,2.8362708E2,6.297489E1,1.7979295E2,1.2648584E3,8.908036E1,3.3182617E1,5.807427E2,1.9869749E3,1.464234E2,1.793152E2,2.5972226E2,2.1151999E1,2.4743333E2,3.6193745E1,5.450206E1,8.47283E0,2.474606E1,1.5504689E2,5.266685E2,7.381899E2,7.9747955E1,9.332403E0,2.1048105E1,1.2134512E1,2.4776181E2,3.3298083E2,1.9755331E3,1.1441841E1,1.441935E2,2.2298894E0,1.2363666E2,5.567854E1,2.3648369E2,2.3238558E1,1.9176394E1,1.9756036E0,4.4114956E1,2.0331837E2,3.272687E1,3.4668708E0,4.5303646E1,9.198414E0,1.2129416E1,1.2616643E1,2.9505696E0,1.5209633E2,6.1710255E1,4.6495822E2,5.0945137E1,2.8802822E1,7.1162477E0,2.2161555E0,5.18788E0,6.9466314E0,1.7550447E2,7.225733E1,3.232099E2,9.770955E0,1.1668786E1,1.9638643E3,7.5240345E0,3.917806E0,1.16479485E2,2.771402E1,5.9405117E1,6.4231544E1,7.3997173E0,4.8278824E1,1.6914635E1,2.1956906E2,1.2413756E1,1.0824802E1,1.797131E1,1.2050853E0,3.6646446E1,7.46851E0,1.8844888E2,1.4869504E1,1.8593082E1,1.413379E1,8.1563E0,3.7147346E1,6.720631E0,2.477783E0,3.2300277E0,8.899388E0,9.675264E0,2.941378E0,1.4705281E0,1.4800415E0,1.0778687E2,4.4309452E1,4.4320207E0,5.7278233E1,4.5465942E2,1.0298797E1],"tree_param":{"num_deleted":"0","num_feature":"38","num_nodes":"107","size_leaf_vector":"1"}},{"base_weights":[-5.0833565E-3,-4.3324012E-1,6.72835E-1,-2.654841E-1,-1.3252679E0,1.066504E0,-2.013169E-1,3.5415706E-1,-5.304345E-1,-6.1778235E-1,-1.3932198E0,1.3994346E0,6.851353E-1,-4.1244337E-1,1.4959339E0,1.4116117E-1,8.664074E-1,4.694278E-1,-6.5531796E-1,5.8351267E-2,-7.046811E-1,2.4581244E-2,-1.4014221E0,1.4572014E0,1.0679146E0,6.019435E-2,1.0243987E0,-5.8729845E-1,9.0273905E-1,1.5443435E0,8.9792526E-1,4.4844645E-1,-1.9521263E-1,1.1124029E0,1.7958769E-1,9.5099217E-1,8.1331655E-2,-7.565658E-1,8.799005E-2,3.0868484E-2,-7.8874165E-1,-1.409139E0,1.1387541E-2,1.4642806E0,-1.8875383E-2,1.2496746E0,3.256093E-1,5.83545E-1,-7.5485855E-1,1.3901873E0,7.389222E-1,-7.927047E-1,1.8553585E-3,-5.739481E-1,1.042817E0,7.7952236E-2,2.725744E-2,6.6967E-2,-1.19518945E-2,3.3293866E-2,-3.5699469E-3,-1.5985267E-2,7.487518E-2,5.847534E-2,2.585105E-2,4.3807514E-2,-2.2327445E-2,7.456914E-2,4.0122192E-2,4.5454215E-2,-7.4248123E-3,-3.928292E-2,7.2110586E-2,2.1443492E-2,-1.837037E-2,-4.3591768E-2,1.9991513E-2,-4.4211164E-2,-7.118395E-2,7.357497E-2,-1.3368259E-3,-7.4334755E-3,6.414968E-2,-2.8624443E-2,3.2474693E-2,1.7362922E-2,7.965105E-2,-4.59579E-2,6.695683E-2,7.0827186E-2,-7.768608E-3,-2.584066E-2,4.332369E-2,-4.9624328E-2,-1.4374813E-3,1.1878973E-2,-4.265743E-2,-5.6730617E-2,4.745838E-2,-6.7677996E-3,5.756962E-2],"categories":[],"categories_nodes":[],"categories_segments":[],"categories_sizes":[],"default_left":[0,0,0,0,0,0,0,0,0,0,0,0,0,0,0,0,0,0,0,0,0,0,0,0,0,0,0,0,0,0,0,0,0,0,0,0,0,0,0,0,0,0,0,0,0,0,0,0,0,0,0,0,0,0,0,0,0,0,0,0,0,0,0,0,0,0,0,0,0,0,0,0,0,0,0,0,0,0,0,0,0,0,0,0,0,0,0,0,0,0,0,0,0,0,0,0,0,0,0,0,0],"id":7,"left_children":[1,3,5,7,9,11,13,15,17,19,21,23,25,27,29,31,33,35,37,-1,39,-1,41,43,45,47,49,51,53,55,57,59,61,63,65,67,69,71,73,-1,75,77,-1,79,-1,81,83,85,87,89,91,93,95,97,99,-1,-1,-1,-1,-1,-1,-1,-1,-1,-1,-1,-1,-1,-1,-1,-1,-1,-1,-1,-1,-1,-1,-1,-1,-1,-1,-1,-1,-1,-1,-1,-1,-1,-1,-1,-1,-1,-1,-1,-1,-1,-1,-1,-1,-1,-1],"loss_changes":[1.4649454E3,4.6255066E2,6.725382E2,4.2785654E2,2.2667542E1,1.7009741E2,2.182997E2,8.507219E1,2.2820569E2,7.7527294E0,7.579956E0,1.2200562E1,1.3348795E2,1.2495614E2,5.65155E-1,5.7216793E1,3.851216E1,3.790542E1,1.2220361E2,0E0,5.291498E0,0E0,5.9036255E0,8.4626465E0,1.447998E1,9.543316E1,4.159845E1,5.786812E1,1.3813721E1,4.5928955E-2,4.0532374E0,3.2729797E1,5.6229897E1,5.124466E0,2.7264706E1,6.076187E0,2.1752243E1,9.250836E1,3.0499073E1,0E0,4.4064827E0,2.1153564E0,0E0,6.571167E0,0E0,4.30394E0,7.0781636E0,3.192918E1,3.1339981E1,7.462616E0,3.7511726E1,5.4086105E1,2.5317862E1,6.354617E0,7.665703E0,0E0,0E0,0E0,0E0,0E0,0E0,0E0,0E0,0E0,0E0,0E0,0E0,0E0,0E0,0E0,0E0,0E0,0E0,0E0,0E0,0E0,0E0,0E0,0E0,0E0,0E0,0E0,0E0,0E0,0E0,0E0,0E0,0E0,0E0,0E0,0E0,0E0,0E0,0E0,0E0,0E0,0E0,0E0,0E0,0E0,0E0],"parents":[2147483647,0,0,1,1,2,2,3,3,4,4,5,5,6,6,7,7,8,8,9,9,10,10,11,11,12,12,13,13,14,14,15,15,16,16,17,17,18,18,20,20,22,22,23,23,24,24,25,25,26,26,27,27,28,28,29,29,30,30,31,31,32,32,33,33,34,34,35,35,36,36,37,37,38,38,40,40,41,41,43,43,45,45,46,46,47,47,48,48,49,49,50,50,51,51,52,52,53,53,54,54],"right_children":[2,4,6,8,10,12,14,16,18,20,22,24,26,28,30,32,34,36,38,-1,40,-1,42,44,46,48,50,52,54,56,58,60,62,64,66,68,70,72,74,-1,76,78,-1,80,-1,82,84,86,88,90,92,94,96,98,100,-1,-1,-1,-1,-1,-1,-1,-1,-1,-1,-1,-1,-1,-1,-1,-1,-1,-1,-1,-1,-1,-1,-1,-1,-1,-1,-1,-1,-1,-1,-1,-1,-1,-1,-1,-1,-1,-1,-1,-1,-1,-1,-1,-1,-1,-1],"split_conditions":[1.2788363E-1,1.482312E0,1.4019215E-1,-4.1760948E-1,-1.0757354E0,-4.2952728E-1,3.7296896E0,7.5343955E-1,-1.1587436E0,-2.2466023E0,-2.367546E0,-4.798789E-1,-6.527376E-2,1.3315027E0,4.903896E-1,-2.102828E-1,4.2434347E-1,-4.8700017E-1,6.219564E-1,5.8351267E-2,-1.5338831E0,2.4581244E-2,3.7296896E0,1.8878478E0,7.827456E-3,4.771217E-2,1.0706405E-1,4.7208437E-1,-1.1380396E0,1.4924438E0,7.910742E-1,1.3587648E0,3.7296896E0,8.6814433E-1,-4.7284907E-1,-1.6433618E0,-1.6152887E0,3.7296896E0,3.9670342E-1,3.0868484E-2,2.1947742E0,-1.6919641E0,1.1387541E-2,2.175757E0,-1.8875383E-2,-1.0165166E0,8.1266336E-2,2.4561028E0,2.4561028E0,1.482312E0,2.1880773E-1,1.8109098E-1,1.482312E0,2.4858663E0,1.0599759E0,7.7952236E-2,2.725744E-2,6.6967E-2,-1.19518945E-2,3.3293866E-2,-3.5699469E-3,-1.5985267E-2,7.487518E-2,5.847534E-2,2.585105E-2,4.3807514E-2,-2.2327445E-2,7.456914E-2,4.0122192E-2,4.5454215E-2,-7.4248123E-3,-3.928292E-2,7.2110586E-2,2.1443492E-2,-1.837037E-2,-4.3591768E-2,1.9991513E-2,-4.4211164E-2,-7.118395E-2,7.357497E-2,-1.3368259E-3,-7.4334755E-3,6.414968E-2,-2.8624443E-2,3.2474693E-2,1.7362922E-2,7.965105E-2,-4.59579E-2,6.695683E-2,7.0827186E-2,-7.768608E-3,-2.584066E-2,4.332369E-2,-4.9624328E-2,-1.4374813E-3,1.1878973E-2,-4.265743E-2,-5.6730617E-2,4.745838E-2,-6.7677996E-3,5.756962E-2],"split_indices":[35,26,29,8,35,29,24,5,35,17,12,29,16,35,1,29,29,2,5,0,1,0,24,8,8,8,36,16,1,2,29,1,24,1,7,19,35,24,8,0,21,17,0,1,0,2,16,10,10,26,16,2,26,34,34,0,0,0,0,0,0,0,0,0,0,0,0,0,0,0,0,0,0,0,0,0,0,0,0,0,0,0,0,0,0,0,0,0,0,0,0,0,0,0,0,0,0,0,0,0,0],"split_type":[0,0,0,0,0,0,0,0,0,0,0,0,0,0,0,0,0,0,0,0,0,0,0,0,0,0,0,0,0,0,0,0,0,0,0,0,0,0,0,0,0,0,0,0,0,0,0,0,0,0,0,0,0,0,0,0,0,0,0,0,0,0,0,0,0,0,0,0,0,0,0,0,0,0,0,0,0,0,0,0,0,0,0,0,0,0,0,0,0,0,0,0,0,0,0,0,0,0,0,0,0],"sum_hessian":[5.0450884E3,3.0923782E3,1.9527101E3,2.6039695E3,4.8840863E2,1.3462255E3,6.0648456E2,7.798329E2,1.8241366E3,4.3683796E1,4.4472485E2,7.173326E2,6.2889294E2,5.400616E2,6.6423E1,5.5170654E2,2.2812636E2,2.0223238E2,1.6219043E3,1.4510509E0,4.2232746E1,1.6715494E0,4.4305328E2,6.07995E2,1.093376E2,2.2169551E2,4.0719742E2,4.7717413E2,6.2887432E1,5.998468E1,6.438315E0,2.8814563E2,2.6356088E2,1.6751024E2,6.0616127E1,8.9601295E1,1.1263108E2,1.42745E3,1.9445433E2,2.145491E0,4.0087257E1,4.41099E2,1.9543005E0,6.058592E2,2.1358104E0,8.728227E1,2.2055326E1,1.3517976E2,8.651575E1,1.7679523E2,2.3040218E2,3.5356094E2,1.236132E2,5.180269E0,5.7707165E1,5.8562737E1,1.4219421E0,4.509535E0,1.9287801E0,2.0297025E2,8.517538E1,2.4626051E2,1.7300375E1,1.5197028E2,1.5539964E1,2.850532E1,3.2110806E1,1.7370605E1,7.223069E1,2.3834127E1,8.879695E1,1.4094438E3,1.8006025E1,1.1124334E2,8.3211E1,3.771693E1,2.3703268E0,1.3554968E1,4.2754404E2,6.0295306E2,2.9060965E0,1.950742E0,8.5331535E1,5.6422844E0,1.641304E1,1.1062899E2,2.4550768E1,8.074164E1,5.7741127E0,1.7391298E2,2.8822627E0,2.096376E1,2.0943842E2,2.8003094E2,7.353E1,9.746444E1,2.6148758E1,3.9729013E0,1.2073673E0,4.8484917E0,5.2858673E1],"tree_param":{"num_deleted":"0","num_feature":"38","num_nodes":"101","size_leaf_vector":"1"}},{"base_weights":[-1.6681725E-4,5.4313576E-1,-4.631769E-1,2.3286855E-2,1.0364182E0,-5.8503026E-1,1.4653513E0,6.385154E-1,-2.881563E-1,1.3273028E0,5.1605546E-1,-6.844594E-1,7.623581E-1,1.4882269E0,3.7913498E-1,8.2586724E-1,3.343027E-2,-7.902097E-2,-7.3690426E-1,1.3941745E0,1.0196728E0,9.4720393E-1,-2.1271843E-1,-4.4182274E-2,-8.3289236E-1,-9.5953995E-1,1.0056988E0,1.6554123E-2,1.498637E0,-1.7240705E-2,5.229969E-2,6.720614E-1,1.2736243E0,9.846099E-1,-2.0563108E-1,8.949151E-1,-2.2683173E-1,-8.598252E-1,2.66428E-1,1.2243434E0,1.4767942E0,1.2409719E0,3.0945224E-1,1.2105372E0,5.9654033E-1,-3.533642E-1,1.3794445E0,1.1377734E-1,-8.2832605E-1,-7.0470804E-1,-1.2434542E0,8.0762905E-1,-1.2951394E0,6.825808E-1,1.3826158E0,1.5040224E0,2.1553185E-2,5.8286756E-2,2.7233977E-2,6.554998E-2,-8.022695E-3,6.207077E-2,9.365897E-3,-2.1500397E-2,1.0549613E-2,6.382649E-2,2.9510066E-2,-1.7110901E-2,2.1466935E-2,4.454149E-2,-4.4964544E-2,5.8095586E-2,-4.348199E-4,6.6620834E-2,4.3164413E-2,3.972694E-2,7.411432E-2,-2.094327E-2,6.3205324E-2,4.0342337E-3,6.908008E-2,-1.5488093E-2,6.1985858E-2,1.3225983E-2,5.445841E-2,-3.0001549E-2,2.583391E-2,7.415823E-2,9.309537E-3,-1.7164908E-3,2.999545E-2,-5.240221E-2,4.0584926E-2,4.3987755E-2,-3.69835E-2,-4.3315883E-3,-6.3028E-2,9.711062E-3,5.796818E-2,-7.1569495E-2,-2.5334928E-2,-9.641171E-3,4.5897286E-2,5.3075284E-2,7.730286E-2,7.5499706E-2,1.9178042E-2],"categories":[],"categories_nodes":[],"categories_segments":[],"categories_sizes":[],"default_left":[0,0,0,0,0,0,0,0,0,0,0,0,0,0,0,0,0,0,0,0,0,0,0,0,0,0,0,0,0,0,0,0,0,0,0,0,0,0,0,0,0,0,0,0,0,0,0,0,0,0,0,0,0,0,0,0,0,0,0,0,0,0,0,0,0,0,0,0,0,0,0,0,0,0,0,0,0,0,0,0,0,0,0,0,0,0,0,0,0,0,0,0,0,0,0,0,0,0,0,0,0,0,0,0,0,0,0],"id":8,"left_children":[1,3,5,7,9,11,13,15,17,19,21,23,25,27,29,31,33,35,37,39,41,43,45,47,49,51,53,-1,55,-1,-1,57,59,61,63,65,67,69,71,73,75,77,79,81,83,85,87,89,91,93,95,97,99,101,103,105,-1,-1,-1,-1,-1,-1,-1,-1,-1,-1,-1,-1,-1,-1,-1,-1,-1,-1,-1,-1,-1,-1,-1,-1,-1,-1,-1,-1,-1,-1,-1,-1,-1,-1,-1,-1,-1,-1,-1,-1,-1,-1,-1,-1,-1,-1,-1,-1,-1,-1,-1],"loss_changes":[1.2586764E3,5.9032947E2,6.356825E2,2.1515544E2,1.7811572E2,3.4101672E2,3.4319763E0,4.2753403E1,6.991107E1,1.4152466E1,1.3380066E2,2.2496094E2,7.4348915E1,1.3970947E0,2.6099155E0,1.8985779E1,2.0727558E1,7.35738E1,2.9444153E1,6.8796387E0,2.14478E1,2.396341E1,3.6061592E1,5.5411777E1,1.0026575E2,1.4210569E1,1.7804367E1,0E0,2.4563599E-1,0E0,0E0,1.2983902E1,4.0988007E0,3.5148468E0,6.911204E0,7.07946E0,3.371106E1,1.539769E1,6.567799E0,6.9847717E0,3.647461E-1,4.583481E0,8.30912E0,7.113907E0,1.8787327E1,3.1807102E1,1.3449364E0,2.684772E1,2.7876877E1,8.191034E1,8.913452E0,6.7208266E-1,1.3199921E0,1.7661537E1,2.0368042E0,4.5324707E-1,0E0,0E0,0E0,0E0,0E0,0E0,0E0,0E0,0E0,0E0,0E0,0E0,0E0,0E0,0E0,0E0,0E0,0E0,0E0,0E0,0E0,0E0,0E0,0E0,0E0,0E0,0E0,0E0,0E0,0E0,0E0,0E0,0E0,0E0,0E0,0E0,0E0,0E0,0E0,0E0,0E0,0E0,0E0,0E0,0E0,0E0,0E0,0E0,0E0,0E0,0E0],"parents":[2147483647,0,0,1,1,2,2,3,3,4,4,5,5,6,6,7,7,8,8,9,9,10,10,11,11,12,12,13,13,14,14,15,15,16,16,17,17,18,18,19,19,20,20,21,21,22,22,23,23,24,24,25,25,26,26,28,28,31,31,32,32,33,33,34,34,35,35,36,36,37,37,38,38,39,39,40,40,41,41,42,42,43,43,44,44,45,45,46,46,47,47,48,48,49,49,50,50,51,51,52,52,53,53,54,54,55,55],"right_children":[2,4,6,8,10,12,14,16,18,20,22,24,26,28,30,32,34,36,38,40,42,44,46,48,50,52,54,-1,56,-1,-1,58,60,62,64,66,68,70,72,74,76,78,80,82,84,86,88,90,92,94,96,98,100,102,104,106,-1,-1,-1,-1,-1,-1,-1,-1,-1,-1,-1,-1,-1,-1,-1,-1,-1,-1,-1,-1,-1,-1,-1,-1,-1,-1,-1,-1,-1,-1,-1,-1,-1,-1,-1,-1,-1,-1,-1,-1,-1,-1,-1,-1,-1,-1,-1,-1,-1,-1,-1],"split_conditions":[-2.644102E-1,1.0938222E-1,3.7296896E0,-3.311926E-1,-4.233375E-1,1.2976242E0,3.285404E0,1.3587648E0,7.642618E-1,-4.8990703E-1,7.827456E-3,-6.2911934E-1,-1.3072006E0,-2.5872974E0,-6.919419E-1,-1.428822E-1,-1.3165082E0,-6.3432723E-1,7.69191E-2,5.84679E-1,7.827456E-3,-6.1580205E-1,2.4561028E0,1.482312E0,1.482312E0,-8.7362474E-1,2.0105693E0,1.6554123E-2,2.4407816E0,-1.7240705E-2,5.229969E-2,-6.3432723E-1,2.5219638E0,8.6699015E-1,-3.6591458E-1,-8.412114E-1,-1.428822E-1,-1.6971333E0,-6.1740583E-1,2.697975E-1,-4.2105255E0,-1.2052658E0,2.4561028E0,-3.1805787E0,-1.1307082E-1,-1.428822E-1,1.6638591E0,8.311341E-1,5.84679E-1,-1.3165082E0,-1.3165082E0,-1.9397388E-1,1.3360113E-1,-8.042537E-1,2.4858663E0,2.3839695E0,2.1553185E-2,5.8286756E-2,2.7233977E-2,6.554998E-2,-8.022695E-3,6.207077E-2,9.365897E-3,-2.1500397E-2,1.0549613E-2,6.382649E-2,2.9510066E-2,-1.7110901E-2,2.1466935E-2,4.454149E-2,-4.4964544E-2,5.8095586E-2,-4.348199E-4,6.6620834E-2,4.3164413E-2,3.972694E-2,7.411432E-2,-2.094327E-2,6.3205324E-2,4.0342337E-3,6.908008E-2,-1.5488093E-2,6.1985858E-2,1.3225983E-2,5.445841E-2,-3.0001549E-2,2.583391E-2,7.415823E-2,9.309537E-3,-1.7164908E-3,2.999545E-2,-5.240221E-2,4.0584926E-2,4.3987755E-2,-3.69835E-2,-4.3315883E-3,-6.3028E-2,9.711062E-3,5.796818E-2,-7.1569495E-2,-2.5334928E-2,-9.641171E-3,4.5897286E-2,5.3075284E-2,7.730286E-2,7.5499706E-2,1.9178042E-2],"split_indices":[29,34,24,8,29,34,26,1,1,29,8,8,15,12,12,4,34,2,28,34,8,8,10,26,26,8,34,0,2,0,0,2,36,3,34,34,4,19,36,8,37,18,10,37,5,4,28,5,34,34,34,21,2,3,34,36,0,0,0,0,0,0,0,0,0,0,0,0,0,0,0,0,0,0,0,0,0,0,0,0,0,0,0,0,0,0,0,0,0,0,0,0,0,0,0,0,0,0,0,0,0,0,0,0,0,0,0],"split_type":[0,0,0,0,0,0,0,0,0,0,0,0,0,0,0,0,0,0,0,0,0,0,0,0,0,0,0,0,0,0,0,0,0,0,0,0,0,0,0,0,0,0,0,0,0,0,0,0,0,0,0,0,0,0,0,0,0,0,0,0,0,0,0,0,0,0,0,0,0,0,0,0,0,0,0,0,0,0,0,0,0,0,0,0,0,0,0,0,0,0,0,0,0,0,0,0,0,0,0,0,0,0,0,0,0,0,0],"sum_hessian":[5.001592E3,2.301181E3,2.7004111E3,1.1209293E3,1.1802515E3,2.540582E3,1.5982907E2,3.7637787E2,7.445515E2,7.5606036E2,4.241911E2,2.3664446E3,1.7413731E2,1.5617006E2,3.6590173E0,2.8711414E2,8.926372E1,5.0866733E2,2.3588419E2,6.181556E2,1.379048E2,2.66329E2,1.5786209E2,4.4560236E2,1.9208423E3,2.1197676E1,1.5293964E2,1.684921E0,1.5448514E2,1.9859626E0,1.6730547E0,2.1556715E2,7.1547E1,1.7302341E1,7.196137E1,6.636025E1,4.4230707E2,2.1026685E2,2.5617329E1,2.0748131E2,4.1067422E2,1.0457327E2,3.3331524E1,1.5070436E2,1.1562464E2,1.4576392E2,1.2098184E1,3.7160114E2,7.400123E1,1.4658848E3,4.5495755E2,3.1586456E0,1.803903E1,8.386016E1,6.9079475E1,1.5330298E2,1.1821556E0,4.2542076E1,1.7302507E2,6.981333E1,1.7336681E0,1.2665711E1,4.63663E0,4.6751007E1,2.521037E1,2.804644E1,3.8313812E1,3.76567E2,6.574009E1,4.16003E0,2.0610683E2,5.2632174E0,2.035411E1,1.576132E2,4.9868103E1,4.442799E0,4.0623145E2,1.2023532E0,1.0337092E2,2.8356314E1,4.9752126E0,2.65699E0,1.4804738E2,6.998991E1,4.5634735E1,1.1380833E2,3.1955587E1,1.0907154E1,1.19103E0,2.8553735E2,8.6063774E1,6.557671E1,8.424517E0,3.1125519E1,1.4347592E3,6.71773E0,4.482398E2,1.7168046E0,1.441841E0,1.4685723E1,3.3533077E0,1.7807732E1,6.605243E1,2.5828802E1,4.3250675E1,1.5214444E2,1.1585392E0],"tree_param":{"num_deleted":"0","num_feature":"38","num_nodes":"107","size_leaf_vector":"1"}},{"base_weights":[7.9615915E-4,-3.3235836E-1,7.625563E-1,8.03572E-2,-6.908737E-1,1.1032561E0,-1.0148863E-2,6.6125876E-1,-2.3474857E-1,-7.5895905E-1,1.3685229E0,1.4159967E0,8.3246386E-1,-2.0137292E-1,1.4139555E0,9.6699905E-1,2.7171955E-1,-3.6036482E-1,3.6603767E-1,1.7027728E-1,-8.8743365E-1,1.420022E0,-1.1241511E-2,1.4484476E0,1.1249472E0,3.085568E-1,1.0457261E0,-5.7059944E-1,3.8523975E-1,7.378006E-2,6.5055126E-1,1.2425486E0,6.49945E-1,6.646236E-2,1.086143E0,5.394445E-1,-4.3983594E-1,4.6741965E-1,-3.299691E-1,4.006116E-1,-7.280116E-1,-9.3762386E-1,4.111738E-1,1.4784065E-3,1.4491609E0,1.4521967E0,5.209417E-1,7.430426E-2,1.2562397E0,8.572693E-1,-4.0151381E-1,1.1967187E0,5.350783E-1,-7.507104E-1,6.505935E-1,8.209466E-1,-1.1158486E-1,5.947217E-2,-2.2143144E-2,6.571286E-2,3.136171E-2,1.4717281E-2,6.6978306E-2,-8.085101E-3,2.6413042E-2,2.3774048E-2,6.0323626E-2,7.114037E-2,1.6587375E-2,-3.1040793E-2,-1.5689171E-3,1.4952523E-2,3.587201E-2,5.214274E-2,-2.338004E-2,3.881501E-2,1.2806917E-3,-3.9634362E-2,4.4773575E-2,-3.997805E-2,-6.5710865E-2,4.1204E-2,-3.6858723E-2,1.8269552E-2,7.324904E-2,7.416744E-2,6.434914E-2,-1.4467953E-3,4.1506734E-2,4.1291215E-2,-2.1177387E-2,6.575673E-2,1.1890303E-2,9.759393E-3,5.74579E-2,-3.31093E-2,6.0801126E-2,6.907564E-2,5.092566E-2,-3.0037684E-2,3.863297E-2,-4.5133825E-2,1.3163804E-2,1.4880453E-2,6.268917E-2,4.5659106E-2,-3.0884067E-2,-2.0722814E-2,2.8158812E-2],"categories":[],"categories_nodes":[],"categories_segments":[],"categories_sizes":[],"default_left":[0,0,0,0,0,0,0,0,0,0,0,0,0,0,0,0,0,0,0,0,0,0,0,0,0,0,0,0,0,0,0,0,0,0,0,0,0,0,0,0,0,0,0,0,0,0,0,0,0,0,0,0,0,0,0,0,0,0,0,0,0,0,0,0,0,0,0,0,0,0,0,0,0,0,0,0,0,0,0,0,0,0,0,0,0,0,0,0,0,0,0,0,0,0,0,0,0,0,0,0,0,0,0,0,0,0,0,0,0],"id":9,"left_children":[1,3,5,7,9,11,13,15,17,19,21,23,25,27,29,31,33,35,37,39,41,43,-1,45,47,49,51,53,55,-1,57,59,61,63,65,67,69,71,73,75,77,79,81,-1,83,85,87,89,91,93,95,97,99,101,103,105,107,-1,-1,-1,-1,-1,-1,-1,-1,-1,-1,-1,-1,-1,-1,-1,-1,-1,-1,-1,-1,-1,-1,-1,-1,-1,-1,-1,-1,-1,-1,-1,-1,-1,-1,-1,-1,-1,-1,-1,-1,-1,-1,-1,-1,-1,-1,-1,-1,-1,-1,-1,-1],"loss_changes":[1.2583912E3,5.104999E2,3.9720526E2,2.938625E2,2.5990454E2,8.749634E1,1.2627914E2,6.697389E1,7.869536E1,2.1358081E2,5.196739E0,2.9464111E0,6.264862E1,8.875649E1,1.6234589E0,2.6791199E1,4.1659924E1,6.1841606E1,1.2891981E1,4.5395237E1,1.0276465E2,2.2956085E0,0E0,7.470703E-1,7.2280884E0,6.442525E1,3.0211731E1,5.5755585E1,3.4401802E1,0E0,3.9974258E0,6.584778E0,3.6141567E1,2.1206787E1,3.114128E0,1.2437332E1,5.853694E1,6.4357185E0,4.934926E0,2.4514307E1,5.4183655E0,7.759631E1,2.8651909E1,0E0,4.3359375E-1,3.0462646E-1,5.851193E-1,2.9533513E0,2.513382E0,1.776661E1,3.132153E1,8.736206E0,2.5593758E1,3.40514E1,6.6173124E0,1.1784931E1,1.5547715E1,0E0,0E0,0E0,0E0,0E0,0E0,0E0,0E0,0E0,0E0,0E0,0E0,0E0,0E0,0E0,0E0,0E0,0E0,0E0,0E0,0E0,0E0,0E0,0E0,0E0,0E0,0E0,0E0,0E0,0E0,0E0,0E0,0E0,0E0,0E0,0E0,0E0,0E0,0E0,0E0,0E0,0E0,0E0,0E0,0E0,0E0,0E0,0E0,0E0,0E0,0E0,0E0],"parents":[2147483647,0,0,1,1,2,2,3,3,4,4,5,5,6,6,7,7,8,8,9,9,10,10,11,11,12,12,13,13,14,14,15,15,16,16,17,17,18,18,19,19,20,20,21,21,23,23,24,24,25,25,26,26,27,27,28,28,30,30,31,31,32,32,33,33,34,34,35,35,36,36,37,37,38,38,39,39,40,40,41,41,42,42,44,44,45,45,46,46,47,47,48,48,49,49,50,50,51,51,52,52,53,53,54,54,55,55,56,56],"right_children":[2,4,6,8,10,12,14,16,18,20,22,24,26,28,30,32,34,36,38,40,42,44,-1,46,48,50,52,54,56,-1,58,60,62,64,66,68,70,72,74,76,78,80,82,-1,84,86,88,90,92,94,96,98,100,102,104,106,108,-1,-1,-1,-1,-1,-1,-1,-1,-1,-1,-1,-1,-1,-1,-1,-1,-1,-1,-1,-1,-1,-1,-1,-1,-1,-1,-1,-1,-1,-1,-1,-1,-1,-1,-1,-1,-1,-1,-1,-1,-1,-1,-1,-1,-1,-1,-1,-1,-1,-1,-1,-1],"split_conditions":[3.3540416E-1,-1.9850212E-1,1.1669091E-1,-4.1760948E-1,3.7296896E0,-4.8990703E-1,3.7296896E0,7.6810345E-2,7.8475523E-1,-1.0342313E0,3.285404E0,1.049792E0,-3.8516972E-2,3.0103555E-1,4.2192155E-1,-6.6372746E-1,7.8475523E-1,-1.2417518E0,1.3484977E0,1.482312E0,1.6727531E0,-2.6879785E0,-1.1241511E-2,2.6308358E0,5.83734E-1,-5.2396524E-1,5.616061E-1,1.0409739E0,4.1755116E-1,7.378006E-2,6.6362876E-1,1.1514604E0,-1.6877484E-1,6.733381E-1,-6.6278255E-1,-1.7918049E0,-1.21141E-1,6.219564E-1,-1.6567929E0,-1.3247601E0,3.0692012E0,1.482312E0,1.482312E0,1.4784065E-3,-2.4682631E0,-5.6916916E-1,7.089411E-1,-1.2865978E0,1.7738119E0,-1.1307082E-1,2.4561028E0,-2.933973E-1,5.5187476E-1,1.1130139E0,1.6635355E0,1.0248877E0,1.453754E0,5.947217E-2,-2.2143144E-2,6.571286E-2,3.136171E-2,1.4717281E-2,6.6978306E-2,-8.085101E-3,2.6413042E-2,2.3774048E-2,6.0323626E-2,7.114037E-2,1.6587375E-2,-3.1040793E-2,-1.5689171E-3,1.4952523E-2,3.587201E-2,5.214274E-2,-2.338004E-2,3.881501E-2,1.2806917E-3,-3.9634362E-2,4.4773575E-2,-3.997805E-2,-6.5710865E-2,4.1204E-2,-3.6858723E-2,1.8269552E-2,7.324904E-2,7.416744E-2,6.434914E-2,-1.4467953E-3,4.1506734E-2,4.1291215E-2,-2.1177387E-2,6.575673E-2,1.1890303E-2,9.759393E-3,5.74579E-2,-3.31093E-2,6.0801126E-2,6.907564E-2,5.092566E-2,-3.0037684E-2,3.863297E-2,-4.5133825E-2,1.3163804E-2,1.4880453E-2,6.268917E-2,4.5659106E-2,-3.0884067E-2,-2.0722814E-2,2.8158812E-2],"split_indices":[35,29,29,8,24,29,24,9,6,35,26,9,16,16,1,29,6,35,8,26,6,16,0,3,16,9,9,35,36,0,29,1,16,16,12,34,35,5,35,35,6,26,26,0,22,29,35,23,20,5,10,9,16,5,35,8,16,0,0,0,0,0,0,0,0,0,0,0,0,0,0,0,0,0,0,0,0,0,0,0,0,0,0,0,0,0,0,0,0,0,0,0,0,0,0,0,0,0,0,0,0,0,0,0,0,0,0,0,0],"split_type":[0,0,0,0,0,0,0,0,0,0,0,0,0,0,0,0,0,0,0,0,0,0,0,0,0,0,0,0,0,0,0,0,0,0,0,0,0,0,0,0,0,0,0,0,0,0,0,0,0,0,0,0,0,0,0,0,0,0,0,0,0,0,0,0,0,0,0,0,0,0,0,0,0,0,0,0,0,0,0,0,0,0,0,0,0,0,0,0,0,0,0,0,0,0,0,0,0,0,0,0,0,0,0,0,0,0,0,0,0],"sum_hessian":[4.9565176E3,3.4487683E3,1.5077493E3,1.6035593E3,1.8452091E3,1.046084E3,4.6166528E2,5.635497E2,1.0400096E3,1.7867684E3,5.8440613E1,4.8347958E2,5.6260443E2,4.077699E2,5.38954E1,3.1490536E2,2.4864433E2,8.604925E2,1.795171E2,2.169899E2,1.5697786E3,5.6716255E1,1.7243576E0,4.3140326E2,5.2076317E1,1.6346867E2,3.9913577E2,2.5027118E2,1.5749872E2,4.9005253E1,4.8901496E0,1.6691852E2,1.4798683E2,1.9945721E2,4.9187115E1,6.936146E1,7.9113104E2,1.5697952E2,2.253758E1,1.7314662E2,4.384328E1,1.511633E3,5.814545E1,1.2055277E0,5.5510727E1,4.2910306E2,2.3002243E0,5.9587197E0,4.6117596E1,9.209458E1,7.137409E1,3.0701227E2,9.21235E1,2.1843932E2,3.1831861E1,8.356299E1,7.393573E1,3.2168777E0,1.6732718E0,1.484789E2,1.8439621E1,9.858093E1,4.9405903E1,1.3393349E2,6.552372E1,8.911832E0,4.0275284E1,1.2090135E1,5.7271324E1,5.4786316E2,2.4326788E2,9.5119865E1,6.185966E1,1.4543042E0,2.1083277E1,8.595906E1,8.718756E1,4.2655716E1,1.1875634E0,1.1084044E3,4.032287E2,4.2975372E1,1.5170078E1,1.1453195E0,5.4365406E1,3.5431638E2,7.478667E1,1.1541197E0,1.1461045E0,2.1119318E0,3.8467882E0,4.3321056E1,2.7965398E0,2.8688993E1,6.3405586E1,6.19769E1,9.397195E0,1.4740503E2,1.5960724E2,1.5671636E1,7.6451866E1,1.900642E2,2.8375126E1,2.1022793E1,1.0809068E1,7.88715E1,4.6914864E0,5.129663E1,2.2639093E1],"tree_param":{"num_deleted":"0","num_feature":"38","num_nodes":"109","size_leaf_vector":"1"}},{"base_weights":[8.118645E-3,-6.8653363E-1,1.351569E0,-9.1107523E-1,1.8525386E-1,8.518961E-1,1.4761653E0,6.1473083E-1,-9.7434616E-1,7.2209954E-1,-5.321808E-1,1.0178988E0,9.34723E-2,1.3819419E0,7.720551E-2,3.7206426E-1,1.2039305E0,-4.350172E-1,-1.1093698E0,1.2904881E0,3.6038414E-1,-7.462165E-1,6.1463636E-1,4.464015E-1,1.1507051E0,-2.4912605E-1,6.763328E-1,1.4122151E0,6.707013E-1,6.064931E-1,-1.5247342E-1,1.2475617E0,5.2085333E-3,2.7130991E-2,-7.995885E-1,1.172224E0,-1.125544E0,1.3567344E0,6.074462E-1,6.754077E-1,-3.7564707E-1,7.2498405E-1,-8.5594404E-1,2.9329962E-1,1.2988676E0,1.1957847E0,1.4049548E-1,1.3634019E0,9.373363E-1,1.2024654E0,-4.3332887E-1,1.2270007E-1,1.2900057E0,1.2486949E0,7.393744E-2,2.6195338E-1,1.1076914E0,4.6711355E-2,5.2491054E-3,6.184977E-2,-2.4509251E-2,6.471872E-2,1.1503238E-2,2.0794135E-2,-3.6568206E-2,6.0238253E-2,-4.2098112E-2,5.774945E-3,7.046858E-2,-5.940293E-2,-3.235846E-2,1.2588764E-2,6.873002E-2,4.3825623E-2,-3.2491483E-2,2.3809332E-2,7.473781E-2,-5.8407243E-2,6.61505E-3,4.9865093E-2,-2.3442265E-3,-1.3927433E-2,-4.971699E-2,6.298296E-2,6.358702E-4,-9.265113E-3,7.261168E-2,6.739563E-2,-1.4779418E-2,3.360137E-2,-1.4742503E-2,7.314659E-2,5.2086778E-2,2.288069E-2,5.780635E-2,1.2761465E-2,7.345641E-2,-9.248188E-3,-6.7090705E-2,5.5390593E-2,-1.0356511E-2,7.509624E-2,-9.29743E-3,6.923182E-2,4.137155E-2,3.6783494E-2,-2.3969373E-2,6.5405115E-2,-1.0943784E-2],"categories":[],"categories_nodes":[],"categories_segments":[],"categories_sizes":[],"default_left":[0,0,0,0,0,0,0,0,0,0,0,0,0,0,0,0,0,0,0,0,0,0,0,0,0,0,0,0,0,0,0,0,0,0,0,0,0,0,0,0,0,0,0,0,0,0,0,0,0,0,0,0,0,0,0,0,0,0,0,0,0,0,0,0,0,0,0,0,0,0,0,0,0,0,0,0,0,0,0,0,0,0,0,0,0,0,0,0,0,0,0,0,0,0,0,0,0,0,0,0,0,0,0,0,0,0,0,0,0],"id":10,"left_children":[1,3,5,7,9,11,13,15,17,19,21,23,25,27,-1,29,31,33,35,37,39,41,43,45,47,49,51,53,55,57,59,61,-1,63,65,67,69,71,73,75,77,79,81,83,85,87,89,91,93,95,97,99,101,103,-1,105,107,-1,-1,-1,-1,-1,-1,-1,-1,-1,-1,-1,-1,-1,-1,-1,-1,-1,-1,-1,-1,-1,-1,-1,-1,-1,-1,-1,-1,-1,-1,-1,-1,-1,-1,-1,-1,-1,-1,-1,-1,-1,-1,-1,-1,-1,-1,-1,-1,-1,-1,-1,-1],"loss_changes":[4.569555E3,6.319824E2,1.0264282E2,2.4838843E2,2.5531064E2,4.2138428E1,6.4089355E0,1.4251793E1,1.7901782E2,7.745859E1,7.0137314E1,2.0367035E1,1.241721E1,1.12960205E1,0E0,9.224782E0,1.2876701E0,8.345391E1,7.404541E1,5.827957E0,5.427985E1,3.9311462E1,9.556131E0,1.2098732E1,8.824341E0,1.1046201E1,7.6480246E0,4.0775146E0,4.1965666E0,8.371178E0,1.1745383E1,1.051403E0,0E0,6.49795E1,2.4527771E1,3.4363346E0,5.7766846E1,2.2834778E0,5.5790734E0,2.5980736E1,2.8525736E1,3.6571503E0,1.7582535E1,8.672676E0,3.4901466E0,3.8874588E0,9.25327E0,1.9745636E0,1.1470436E1,8.1158066E-1,7.799219E0,4.5133166E0,3.654934E0,8.240509E0,0E0,5.370636E0,3.4315166E0,0E0,0E0,0E0,0E0,0E0,0E0,0E0,0E0,0E0,0E0,0E0,0E0,0E0,0E0,0E0,0E0,0E0,0E0,0E0,0E0,0E0,0E0,0E0,0E0,0E0,0E0,0E0,0E0,0E0,0E0,0E0,0E0,0E0,0E0,0E0,0E0,0E0,0E0,0E0,0E0,0E0,0E0,0E0,0E0,0E0,0E0,0E0,0E0,0E0,0E0,0E0,0E0],"parents":[2147483647,0,0,1,1,2,2,3,3,4,4,5,5,6,6,7,7,8,8,9,9,10,10,11,11,12,12,13,13,15,15,16,16,17,17,18,18,19,19,20,20,21,21,22,22,23,23,24,24,25,25,26,26,27,27,28,28,29,29,30,30,31,31,33,33,34,34,35,35,36,36,37,37,38,38,39,39,40,40,41,41,42,42,43,43,44,44,45,45,46,46,47,47,48,48,49,49,50,50,51,51,52,52,53,53,55,55,56,56],"right_children":[2,4,6,8,10,12,14,16,18,20,22,24,26,28,-1,30,32,34,36,38,40,42,44,46,48,50,52,54,56,58,60,62,-1,64,66,68,70,72,74,76,78,80,82,84,86,88,90,92,94,96,98,100,102,104,-1,106,108,-1,-1,-1,-1,-1,-1,-1,-1,-1,-1,-1,-1,-1,-1,-1,-1,-1,-1,-1,-1,-1,-1,-1,-1,-1,-1,-1,-1,-1,-1,-1,-1,-1,-1,-1,-1,-1,-1,-1,-1,-1,-1,-1,-1,-1,-1,-1,-1,-1,-1,-1,-1],"split_conditions":[-1.4599E-1,4.1841236E-1,1.4840816E-1,-9.1216445E-1,5.1610567E-2,4.4323438E-1,8.931728E-1,-5.7101924E-2,-5.299285E-1,-5.265008E-1,1.3315027E0,-6.519832E-1,2.3085872E-2,1.4275451E0,7.720551E-2,4.626291E-1,1.2748795E0,-2.102828E-1,-1.9058175E0,1.1565827E0,4.771217E-2,-8.6457354E-1,2.4561028E0,-7.9635966E-1,5.6165652E-3,-1.81347E0,1.1361834E-1,-2.6277623E-1,-1.4416363E0,2.9717204E-1,-8.8475996E-1,1.7156072E0,5.2085333E-3,6.595446E-1,-1.7813052E0,-2.248219E0,6.219564E-1,-1.8968657E0,1.1130139E0,2.4561028E0,5.6038774E-4,7.910742E-1,-7.397553E-1,-7.2793525E-1,-1.3888016E0,-7.450558E-2,-4.3558812E-1,4.2912582E-1,2.2780643E-1,-2.4087598E0,1.8486993E-1,-4.8951536E-2,3.285404E0,1.4019215E-1,7.393744E-2,-1.2052658E0,1.4423122E0,4.6711355E-2,5.2491054E-3,6.184977E-2,-2.4509251E-2,6.471872E-2,1.1503238E-2,2.0794135E-2,-3.6568206E-2,6.0238253E-2,-4.2098112E-2,5.774945E-3,7.046858E-2,-5.940293E-2,-3.235846E-2,1.2588764E-2,6.873002E-2,4.3825623E-2,-3.2491483E-2,2.3809332E-2,7.473781E-2,-5.8407243E-2,6.61505E-3,4.9865093E-2,-2.3442265E-3,-1.3927433E-2,-4.971699E-2,6.298296E-2,6.358702E-4,-9.265113E-3,7.261168E-2,6.739563E-2,-1.4779418E-2,3.360137E-2,-1.4742503E-2,7.314659E-2,5.2086778E-2,2.288069E-2,5.780635E-2,1.2761465E-2,7.345641E-2,-9.248188E-3,-6.7090705E-2,5.5390593E-2,-1.0356511E-2,7.509624E-2,-9.29743E-3,6.923182E-2,4.137155E-2,3.6783494E-2,-2.3969373E-2,6.5405115E-2,-1.0943784E-2],"split_indices":[0,35,0,0,29,29,0,19,8,29,35,16,16,11,0,29,3,29,35,9,8,0,10,8,9,17,21,16,16,9,23,28,0,9,35,16,5,22,5,10,16,29,8,0,16,29,29,22,16,16,19,14,26,29,0,18,23,0,0,0,0,0,0,0,0,0,0,0,0,0,0,0,0,0,0,0,0,0,0,0,0,0,0,0,0,0,0,0,0,0,0,0,0,0,0,0,0,0,0,0,0,0,0,0,0,0,0,0,0],"split_type":[0,0,0,0,0,0,0,0,0,0,0,0,0,0,0,0,0,0,0,0,0,0,0,0,0,0,0,0,0,0,0,0,0,0,0,0,0,0,0,0,0,0,0,0,0,0,0,0,0,0,0,0,0,0,0,0,0,0,0,0,0,0,0,0,0,0,0,0,0,0,0,0,0,0,0,0,0,0,0,0,0,0,0,0,0,0,0,0,0,0,0,0,0,0,0,0,0,0,0,0,0,0,0,0,0,0,0,0,0],"sum_hessian":[4.894495E3,3.2266128E3,1.6678822E3,2.5657273E3,6.608855E2,3.3445258E2,1.3334297E3,1.0181036E2,2.463917E3,3.7801553E2,2.8286993E2,2.74113E2,6.0339573E1,5.676174E2,7.658123E2,7.3266464E1,2.8543903E1,4.9418793E2,1.969729E3,1.4601086E2,2.3200468E2,2.3867436E2,4.4195564E1,5.251025E1,2.2160275E2,3.8362904E1,2.1976671E1,5.4349835E2,2.4119024E1,5.0528004E1,2.2738459E1,2.7325417E1,1.2184874E0,2.1833788E2,2.7585004E2,1.3362E1,1.956367E3,1.322026E2,1.3808251E1,1.625256E2,6.947908E1,1.6176514E1,2.2249785E2,3.1044659E1,1.3150905E1,1.4378355E1,3.8131893E1,1.08276955E2,1.13325806E2,3.697465E0,3.4665436E1,1.218435E1,9.79232E0,1.629017E2,3.8059662E2,1.32886505E1,1.0830374E1,3.0036522E1,2.0491482E1,3.9253328E0,1.8813126E1,2.5863382E1,1.4620328E0,1.4465138E2,7.368651E1,5.1430387E0,2.70707E2,2.721606E0,1.0640394E1,1.7289427E3,2.2742422E2,2.3437111E0,1.298589E2,1.162357E1,2.184681E0,1.320093E2,3.0516312E1,2.6630533E1,4.2848545E1,1.1741878E1,4.434636E0,4.360167E1,1.7889618E2,6.2003713E0,2.4844288E1,1.2121656E0,1.1938739E1,1.3134737E1,1.2436185E0,1.6924448E1,2.1207445E1,7.998123E1,2.8295725E1,3.6464634E1,7.686117E1,1.2421697E0,2.4552953E0,2.8168282E1,6.4971557E0,2.464585E0,9.719766E0,8.54747E0,1.2448503E0,1.2142963E2,4.147208E1,8.112449E0,5.1762023E0,9.421015E0,1.4093589E0],"tree_param":{"num_deleted":"0","num_feature":"38","num_nodes":"109","size_leaf_vector":"1"}},{"base_weights":[-5.439176E-3,-6.852452E-1,1.2739908E0,-8.757978E-1,2.159538E-2,6.945495E-1,1.4155073E0,5.8168447E-1,-9.5602703E-1,-3.7557155E-1,5.0964445E-1,3.7950495E-1,9.956195E-1,1.3046569E0,7.506172E-2,6.39634E-2,8.581029E-1,-9.920359E-1,7.912697E-1,1.3174856E-1,-6.4937264E-1,6.87361E-1,-1.1191723E0,5.4200995E-1,-3.5461903E-1,1.1485528E0,3.158083E-1,8.411425E-1,1.3677711E0,4.924786E-1,-4.7077736E-1,1.0396168E0,2.7959472E-1,-5.57253E-1,-1.1132084E0,1.0955184E0,-4.313947E-1,1.1349399E0,3.0211363E-2,-7.0471954E-1,1.1226833E0,8.306861E-1,-7.13374E-1,-1.2811433E0,5.9257645E-2,8.197588E-1,2.3229772E-1,-1.001937E0,8.24717E-2,1.2109222E0,-4.0790763E-1,-8.143937E-1,5.587751E-1,9.910252E-1,-2.0356023E-1,1.3033564E0,1.4720483E0,3.3734452E-2,-2.7265597E-2,-3.4892645E-2,3.9615825E-2,3.2172628E-2,6.4250015E-2,-1.8683564E-2,4.4646617E-2,-3.0287234E-2,5.823463E-2,-5.640936E-2,4.8642267E-2,6.1358344E-2,2.1198424E-2,-3.5704225E-2,3.285889E-2,6.932556E-2,1.6093576E-2,-6.7153587E-3,4.2871874E-2,-4.301868E-2,1.2664873E-3,4.6176496E-3,6.466197E-2,1.2153546E-2,4.918772E-2,-4.7969926E-2,4.185472E-2,-6.683488E-2,-4.5138956E-3,1.671221E-2,6.106737E-2,3.17483E-3,4.9689867E-2,-5.7581346E-2,9.355055E-3,2.1938963E-2,-2.5858944E-2,6.1608523E-2,-3.0323187E-2,3.1930406E-2,-5.3445786E-2,-6.392718E-2,1.9584028E-2,-3.537244E-2,3.873555E-2,-8.865937E-3,5.2715715E-2,4.5826927E-2,-4.266716E-2,5.567002E-2,6.873661E-2,7.402134E-2,1.1314756E-2],"categories":[],"categories_nodes":[],"categories_segments":[],"categories_sizes":[],"default_left":[0,0,0,0,0,0,0,0,0,0,0,0,0,0,0,0,0,0,0,0,0,0,0,0,0,0,0,0,0,0,0,0,0,0,0,0,0,0,0,0,0,0,0,0,0,0,0,0,0,0,0,0,0,0,0,0,0,0,0,0,0,0,0,0,0,0,0,0,0,0,0,0,0,0,0,0,0,0,0,0,0,0,0,0,0,0,0,0,0,0,0,0,0,0,0,0,0,0,0,0,0,0,0,0,0,0,0,0,0,0,0],"id":11,"left_children":[1,3,5,7,9,11,13,15,17,19,21,23,25,27,-1,29,31,33,35,37,39,41,43,45,47,49,51,53,55,57,59,61,63,65,67,69,71,73,75,77,79,81,83,85,-1,87,89,91,93,95,97,99,101,103,105,107,109,-1,-1,-1,-1,-1,-1,-1,-1,-1,-1,-1,-1,-1,-1,-1,-1,-1,-1,-1,-1,-1,-1,-1,-1,-1,-1,-1,-1,-1,-1,-1,-1,-1,-1,-1,-1,-1,-1,-1,-1,-1,-1,-1,-1,-1,-1,-1,-1,-1,-1,-1,-1,-1,-1],"loss_changes":[4.1918506E3,4.2392505E2,1.3614307E2,2.9043213E2,1.2992001E2,3.0942734E1,1.0804199E1,1.8543663E1,1.4864502E2,5.1419865E1,8.781281E1,1.9635077E1,1.7127869E1,1.6207153E1,0E0,1.0845087E1,8.597687E0,1.20711914E2,1.833157E1,1.32456E1,2.4348724E1,5.5147247E1,1.270113E1,1.1322262E1,8.610992E0,1.3789261E1,9.317931E0,1.1742859E1,1.5785522E0,5.322422E0,6.6093082E0,5.400749E0,8.981559E0,4.2785736E1,5.734326E1,2.9033585E0,3.6338263E0,1.9991274E0,1.6367098E1,2.6559235E1,1.2267218E0,2.1975418E1,1.0630048E1,1.7631493E0,0E0,1.3271843E1,8.249896E0,2.3914442E0,4.2687006E0,5.8420715E0,4.850231E0,3.925458E0,7.973609E0,4.965824E0,8.116662E0,2.9511108E0,1.6593628E0,0E0,0E0,0E0,0E0,0E0,0E0,0E0,0E0,0E0,0E0,0E0,0E0,0E0,0E0,0E0,0E0,0E0,0E0,0E0,0E0,0E0,0E0,0E0,0E0,0E0,0E0,0E0,0E0,0E0,0E0,0E0,0E0,0E0,0E0,0E0,0E0,0E0,0E0,0E0,0E0,0E0,0E0,0E0,0E0,0E0,0E0,0E0,0E0,0E0,0E0,0E0,0E0,0E0,0E0],"parents":[2147483647,0,0,1,1,2,2,3,3,4,4,5,5,6,6,7,7,8,8,9,9,10,10,11,11,12,12,13,13,15,15,16,16,17,17,18,18,19,19,20,20,21,21,22,22,23,23,24,24,25,25,26,26,27,27,28,28,29,29,30,30,31,31,32,32,33,33,34,34,35,35,36,36,37,37,38,38,39,39,40,40,41,41,42,42,43,43,45,45,46,46,47,47,48,48,49,49,50,50,51,51,52,52,53,53,54,54,55,55,56,56],"right_children":[2,4,6,8,10,12,14,16,18,20,22,24,26,28,-1,30,32,34,36,38,40,42,44,46,48,50,52,54,56,58,60,62,64,66,68,70,72,74,76,78,80,82,84,86,-1,88,90,92,94,96,98,100,102,104,106,108,110,-1,-1,-1,-1,-1,-1,-1,-1,-1,-1,-1,-1,-1,-1,-1,-1,-1,-1,-1,-1,-1,-1,-1,-1,-1,-1,-1,-1,-1,-1,-1,-1,-1,-1,-1,-1,-1,-1,-1,-1,-1,-1,-1,-1,-1,-1,-1,-1,-1,-1,-1,-1,-1,-1],"split_conditions":[-1.8303332E-1,-1.1307082E-1,8.5343376E-2,-8.784233E-1,-1.536334E-1,7.778499E-3,8.931728E-1,-6.8498206E-1,1.5352726E0,-6.1580205E-1,1.482312E0,1.4097724E0,1.2662159E0,-9.535131E-1,7.506172E-2,-9.585035E-1,6.09685E-1,-4.800307E-1,6.206207E-1,-9.332763E-1,1.772921E0,8.091476E-1,8.2232744E-1,-5.65658E-1,-7.619654E-1,1.482312E0,-1.4599E-1,1.4097724E0,3.307419E-1,1.7767905E0,1.0822066E0,-5.112363E-2,7.1687335E-1,3.7296896E0,3.7296896E0,1.1545734E0,1.2522668E-1,-5.2396524E-1,-3.5210866E-1,1.0093418E0,-6.097786E-1,1.0938222E-1,1.0186874E0,3.7446806E0,5.9257645E-2,-9.5032203E-1,1.1083846E0,5.336233E-1,-2.1270875E-2,2.0419478E0,-3.8616884E-1,1.8834918E0,6.0924625E-1,1.2581657E-1,8.558984E-1,-1.6877484E-1,1.482312E0,3.3734452E-2,-2.7265597E-2,-3.4892645E-2,3.9615825E-2,3.2172628E-2,6.4250015E-2,-1.8683564E-2,4.4646617E-2,-3.0287234E-2,5.823463E-2,-5.640936E-2,4.8642267E-2,6.1358344E-2,2.1198424E-2,-3.5704225E-2,3.285889E-2,6.932556E-2,1.6093576E-2,-6.7153587E-3,4.2871874E-2,-4.301868E-2,1.2664873E-3,4.6176496E-3,6.466197E-2,1.2153546E-2,4.918772E-2,-4.7969926E-2,4.185472E-2,-6.683488E-2,-4.5138956E-3,1.671221E-2,6.106737E-2,3.17483E-3,4.9689867E-2,-5.7581346E-2,9.355055E-3,2.1938963E-2,-2.5858944E-2,6.1608523E-2,-3.0323187E-2,3.1930406E-2,-5.3445786E-2,-6.392718E-2,1.9584028E-2,-3.537244E-2,3.873555E-2,-8.865937E-3,5.2715715E-2,4.5826927E-2,-4.266716E-2,5.567002E-2,6.873661E-2,7.402134E-2,1.1314756E-2],"split_indices":[0,5,0,0,16,16,0,13,34,8,26,7,36,16,0,0,9,8,11,0,34,8,34,36,2,26,0,7,2,11,21,13,17,24,24,23,1,9,0,4,22,34,16,5,0,16,21,3,17,8,8,16,16,0,11,16,26,0,0,0,0,0,0,0,0,0,0,0,0,0,0,0,0,0,0,0,0,0,0,0,0,0,0,0,0,0,0,0,0,0,0,0,0,0,0,0,0,0,0,0,0,0,0,0,0,0,0,0,0,0,0],"split_type":[0,0,0,0,0,0,0,0,0,0,0,0,0,0,0,0,0,0,0,0,0,0,0,0,0,0,0,0,0,0,0,0,0,0,0,0,0,0,0,0,0,0,0,0,0,0,0,0,0,0,0,0,0,0,0,0,0,0,0,0,0,0,0,0,0,0,0,0,0,0,0,0,0,0,0,0,0,0,0,0,0,0,0,0,0,0,0,0,0,0,0,0,0,0,0,0,0,0,0,0,0,0,0,0,0,0,0,0,0,0,0],"sum_hessian":[4.817522E3,3.1462651E3,1.6712567E3,2.4779983E3,6.682667E2,3.2921024E2,1.3420465E3,1.2896199E2,2.3490364E3,3.6856476E2,2.9970193E2,1.6197621E2,1.6723402E2,5.923367E2,7.497098E2,4.5316788E1,8.364521E1,2.3020276E3,4.7008747E1,1.2937234E2,2.391924E2,2.7074008E2,2.8961855E1,1.3283391E2,2.9142302E1,1.3595865E2,3.1275372E1,7.270619E1,5.196305E2,2.5200981E1,2.0115807E1,6.3061756E1,2.0583448E1,5.0295563E2,1.799072E3,3.7725178E1,9.283569E0,1.0955362E1,1.18416985E2,2.3253201E2,6.660395E0,2.4597824E2,2.4761852E1,2.7474686E1,1.4871688E0,6.916244E1,6.3671474E1,1.1225457E1,1.7916843E1,1.3093396E2,5.024692E0,5.1176887E0,2.6157682E1,6.36288E1,9.077395E0,3.295546E2,1.9007588E2,2.1734772E1,3.4662094E0,1.7429827E1,2.6859813E0,2.5505735E1,3.7556023E1,1.01565075E1,1.0426941E1,4.898103E2,1.3145301E1,1.7867019E3,1.2370075E1,3.0850065E1,6.8751135E0,7.642831E0,1.640738E0,7.8280168E0,3.1273456E0,9.947172E1,1.894527E1,1.9151956E2,4.1012447E1,1.1648736E0,5.4955215E0,5.1368256E1,1.9460999E2,2.1699802E1,3.0620506E0,2.6133108E1,1.3415775E0,3.2139076E1,3.702336E1,5.3005222E1,1.066625E1,9.998227E0,1.2272296E0,1.1407108E1,6.5097365E0,1.297391E2,1.1948512E0,1.9582521E0,3.06644E0,3.6521103E0,1.4655781E0,3.4792943E0,2.2678389E1,3.1770635E0,6.0451733E1,3.181897E0,5.8954983E0,9.454275E1,2.3501187E2,1.8861891E2,1.456965E0],"tree_param":{"num_deleted":"0","num_feature":"38","num_nodes":"111","size_leaf_vector":"1"}},{"base_weights":[8.174961E-3,-6.5498054E-1,1.2453201E0,-8.662231E-1,1.679079E-1,5.03546E-1,1.3555183E0,5.0140077E-1,-9.382362E-1,1.1828713E0,-1.6709784E-1,8.4343654E-1,1.4402854E-2,1.0913445E0,1.4151816E0,2.1564667E-1,8.9437354E-1,-1.0221689E0,-9.081791E-2,1.3274966E0,9.708442E-1,9.764968E-1,-3.2019755E-1,2.0754181E-1,9.6685094E-1,-3.0116406E-1,7.3466206E-1,3.672853E-1,1.1984799E0,1.3190677E0,7.321088E-2,1.1127077E0,9.128244E-2,1.1880229E0,3.308177E-1,4.9774557E-1,-1.0525956E0,1.4638367E-1,-1.1869111E0,1.4309285E0,9.3005687E-1,-5.262984E-1,1.0484499E0,1.1421905E0,-4.9819652E-2,-4.2298937E-1,1.2922077E0,6.5281875E-2,-5.13601E-1,1.2241371E0,6.4818025E-1,-6.546595E-1,2.8445467E-1,1.3332474E0,1.8613976E-1,7.7207303E-1,-2.5535986E-1,1.2477113E0,7.413247E-1,1.346924E0,7.673375E-1,6.952244E-2,1.3765461E-2,2.0297188E-2,-1.82391E-2,6.739631E-2,3.48404E-2,4.326262E-2,-2.1532377E-2,6.539917E-2,-1.3905967E-3,-5.353958E-2,4.9983602E-2,3.9714612E-2,-4.5739315E-3,-6.373781E-2,1.1182806E-2,1.5169086E-2,7.2802536E-2,-8.23285E-3,5.2836377E-2,2.3077939E-2,-6.037708E-2,2.8880207E-2,6.0051918E-2,6.4857274E-2,1.706026E-2,-6.2252086E-2,2.587806E-2,-2.5614876E-2,6.587293E-2,7.293644E-2,2.2520237E-2,2.7430445E-2,-4.2047754E-2,6.32261E-2,-4.907844E-4,3.6441978E-2,-5.9715636E-2,1.9530226E-2,-4.2170335E-2,-4.2121984E-2,2.7219832E-2,-1.6319668E-2,7.655915E-2,-2.9138444E-2,3.489502E-2,-1.8167567E-2,4.6531316E-2,2.0368434E-2,-4.8307583E-2,6.354535E-2,3.0766329E-2,4.594795E-2,-1.3992222E-2,7.0481084E-2,5.7394475E-2,8.279078E-3,6.463737E-2],"categories":[],"categories_nodes":[],"categories_segments":[],"categories_sizes":[],"default_left":[0,0,0,0,0,0,0,0,0,0,0,0,0,0,0,0,0,0,0,0,0,0,0,0,0,0,0,0,0,0,0,0,0,0,0,0,0,0,0,0,0,0,0,0,0,0,0,0,0,0,0,0,0,0,0,0,0,0,0,0,0,0,0,0,0,0,0,0,0,0,0,0,0,0,0,0,0,0,0,0,0,0,0,0,0,0,0,0,0,0,0,0,0,0,0,0,0,0,0,0,0,0,0,0,0,0,0,0,0,0,0,0,0,0,0,0,0,0,0],"id":12,"left_children":[1,3,5,7,9,11,13,15,17,19,21,23,25,27,29,31,33,35,37,39,41,43,45,47,49,51,53,55,57,59,-1,61,63,65,67,69,71,73,75,77,79,81,83,85,87,89,91,-1,93,95,97,99,101,103,105,107,109,111,113,115,117,-1,-1,-1,-1,-1,-1,-1,-1,-1,-1,-1,-1,-1,-1,-1,-1,-1,-1,-1,-1,-1,-1,-1,-1,-1,-1,-1,-1,-1,-1,-1,-1,-1,-1,-1,-1,-1,-1,-1,-1,-1,-1,-1,-1,-1,-1,-1,-1,-1,-1,-1,-1,-1,-1,-1,-1,-1,-1],"loss_changes":[3.9204202E3,5.409225E2,1.3563013E2,2.4428967E2,2.1655748E2,3.6112656E1,2.1330078E1,1.3786356E1,1.6720752E2,3.5571442E0,8.422808E1,9.859062E0,2.0700281E1,2.0640564E1,3.6323242E0,8.086493E0,8.22784E0,9.949487E1,5.557166E1,2.419281E0,8.429832E0,9.7220955E0,7.0730156E1,1.8177393E1,7.9857025E0,1.3302741E1,8.859974E0,9.388875E0,4.393036E0,5.2511597E0,0E0,1.6747904E0,9.554559E0,1.7205315E0,8.198919E0,1.821069E1,7.94314E1,2.7205202E1,4.995823E0,1.5561523E0,3.1824646E0,3.2541492E0,3.9617004E0,5.636307E0,6.651812E0,6.2667007E1,2.934906E0,0E0,5.3509755E0,2.9086685E0,8.29488E0,8.184317E0,7.649084E0,4.803961E0,6.560104E0,4.361661E0,7.5158796E0,2.3255005E0,4.8711147E0,3.2229004E0,6.7344494E0,0E0,0E0,0E0,0E0,0E0,0E0,0E0,0E0,0E0,0E0,0E0,0E0,0E0,0E0,0E0,0E0,0E0,0E0,0E0,0E0,0E0,0E0,0E0,0E0,0E0,0E0,0E0,0E0,0E0,0E0,0E0,0E0,0E0,0E0,0E0,0E0,0E0,0E0,0E0,0E0,0E0,0E0,0E0,0E0,0E0,0E0,0E0,0E0,0E0,0E0,0E0,0E0,0E0,0E0,0E0,0E0,0E0,0E0],"parents":[2147483647,0,0,1,1,2,2,3,3,4,4,5,5,6,6,7,7,8,8,9,9,10,10,11,11,12,12,13,13,14,14,15,15,16,16,17,17,18,18,19,19,20,20,21,21,22,22,23,23,24,24,25,25,26,26,27,27,28,28,29,29,31,31,32,32,33,33,34,34,35,35,36,36,37,37,38,38,39,39,40,40,41,41,42,42,43,43,44,44,45,45,46,46,48,48,49,49,50,50,51,51,52,52,53,53,54,54,55,55,56,56,57,57,58,58,59,59,60,60],"right_children":[2,4,6,8,10,12,14,16,18,20,22,24,26,28,30,32,34,36,38,40,42,44,46,48,50,52,54,56,58,60,-1,62,64,66,68,70,72,74,76,78,80,82,84,86,88,90,92,-1,94,96,98,100,102,104,106,108,110,112,114,116,118,-1,-1,-1,-1,-1,-1,-1,-1,-1,-1,-1,-1,-1,-1,-1,-1,-1,-1,-1,-1,-1,-1,-1,-1,-1,-1,-1,-1,-1,-1,-1,-1,-1,-1,-1,-1,-1,-1,-1,-1,-1,-1,-1,-1,-1,-1,-1,-1,-1,-1,-1,-1,-1,-1,-1,-1,-1,-1],"split_conditions":[-1.8303332E-1,4.1841236E-1,-2.3482064E-2,-8.944687E-1,-4.798789E-1,-1.8636979E-1,2.5431553E-1,-3.7016562E-1,1.1546506E0,1.2088268E-1,-8.223933E-1,-5.7768613E-1,3.955653E-1,-9.535131E-1,8.333894E-1,-1.204885E0,-9.585035E-1,-1.5737847E0,1.482312E0,-5.6916916E-1,1.5393694E-1,7.910742E-1,3.7296896E0,-3.9306906E-1,-4.640921E-1,-9.733519E-2,-1.4355135E-1,-5.1415986E-1,2.9581946E-1,1.3671961E0,7.321088E-2,-9.332763E-1,7.245329E-2,1.9546664E-1,-2.4366137E-1,-2.0718338E0,3.7296896E0,-4.7284907E-1,3.0692012E0,-1.81347E0,-9.016774E-1,7.287167E-2,6.259329E-1,1.0698421E0,-1.1090105E0,2.4858663E0,9.8651975E-1,6.5281875E-2,-1.2052658E0,1.7268649E0,1.4968635E0,-2.944185E-1,-1.3003131E0,-1.1150681E0,-8.222344E-1,-2.4087598E0,-2.4565332E-1,1.8935702E0,2.351083E0,-5.8352772E-2,-2.6085532E-1,6.952244E-2,1.3765461E-2,2.0297188E-2,-1.82391E-2,6.739631E-2,3.48404E-2,4.326262E-2,-2.1532377E-2,6.539917E-2,-1.3905967E-3,-5.353958E-2,4.9983602E-2,3.9714612E-2,-4.5739315E-3,-6.373781E-2,1.1182806E-2,1.5169086E-2,7.2802536E-2,-8.23285E-3,5.2836377E-2,2.3077939E-2,-6.037708E-2,2.8880207E-2,6.0051918E-2,6.4857274E-2,1.706026E-2,-6.2252086E-2,2.587806E-2,-2.5614876E-2,6.587293E-2,7.293644E-2,2.2520237E-2,2.7430445E-2,-4.2047754E-2,6.32261E-2,-4.907844E-4,3.6441978E-2,-5.9715636E-2,1.9530226E-2,-4.2170335E-2,-4.2121984E-2,2.7219832E-2,-1.6319668E-2,7.655915E-2,-2.9138444E-2,3.489502E-2,-1.8167567E-2,4.6531316E-2,2.0368434E-2,-4.8307583E-2,6.354535E-2,3.0766329E-2,4.594795E-2,-1.3992222E-2,7.0481084E-2,5.7394475E-2,8.279078E-3,6.463737E-2],"split_indices":[0,35,0,0,29,29,0,35,6,9,0,35,16,16,0,23,0,35,26,29,9,29,24,1,29,2,9,19,28,11,0,0,29,9,29,35,24,7,6,17,2,6,35,6,36,34,29,0,18,3,36,11,1,1,6,16,35,9,7,29,2,0,0,0,0,0,0,0,0,0,0,0,0,0,0,0,0,0,0,0,0,0,0,0,0,0,0,0,0,0,0,0,0,0,0,0,0,0,0,0,0,0,0,0,0,0,0,0,0,0,0,0,0,0,0,0,0,0,0],"split_type":[0,0,0,0,0,0,0,0,0,0,0,0,0,0,0,0,0,0,0,0,0,0,0,0,0,0,0,0,0,0,0,0,0,0,0,0,0,0,0,0,0,0,0,0,0,0,0,0,0,0,0,0,0,0,0,0,0,0,0,0,0,0,0,0,0,0,0,0,0,0,0,0,0,0,0,0,0,0,0,0,0,0,0,0,0,0,0,0,0,0,0,0,0,0,0,0,0,0,0,0,0,0,0,0,0,0,0,0,0,0,0,0,0,0,0,0,0,0,0],"sum_hessian":[4.776561E3,3.1099717E3,1.6665894E3,2.474654E3,6.353176E2,2.1628531E2,1.450304E3,1.2348819E2,2.351166E3,1.5703111E2,4.782865E2,1.2718444E2,8.910087E1,2.7075595E2,1.1795481E3,7.239453E1,5.1093655E1,2.139093E3,2.1207297E2,9.022621E1,6.680491E1,5.583593E1,4.2245056E2,2.1107807E1,1.0607663E2,6.2360676E1,2.6740194E1,3.546941E1,2.3528654E2,4.0791196E2,7.716361E2,7.846825E0,6.454771E1,3.2862217E1,1.823144E1,4.1680084E1,2.0974128E3,1.7505614E2,3.701682E1,6.953077E1,2.069544E1,3.0073023E0,6.3797604E1,4.7977325E1,7.8586016E0,3.9782654E2,2.462402E1,8.045811E0,1.3061996E1,5.711895E1,4.8957684E1,3.8813747E1,2.3546932E1,1.2102497E1,1.4637697E1,2.1349743E1,1.4119666E1,2.1085057E2,2.4435968E1,3.8693472E2,2.097722E1,5.3965173E0,2.450308E0,3.8260086E1,2.628762E1,2.3476068E1,9.386147E0,1.0632627E1,7.5988126E0,1.5812943E1,2.5867142E1,2.079454E3,1.7958729E1,4.6380875E1,1.2867526E2,3.493733E1,2.0794919E0,1.800409E0,6.773036E1,2.115239E0,1.8580202E1,1.3590487E0,1.6482536E0,1.6786007E1,4.7011597E1,3.9681316E1,8.296012E0,2.1452131E0,5.7133884E0,3.7908032E2,1.8746216E1,1.994562E1,4.6783996E0,2.9179244E0,1.0144072E1,5.528481E1,1.8341403E0,4.7483418E1,1.4742651E0,5.773146E0,3.30406E1,3.9935052E0,1.9553427E1,1.2204374E0,1.088206E1,5.793837E0,8.843861E0,2.4577496E0,1.8891994E1,7.527785E0,6.5918813E0,2.024163E2,8.434272E0,2.0900396E1,3.5355716E0,2.8961966E2,9.731508E1,1.0391222E1,1.05859995E1],"tree_param":{"num_deleted":"0","num_feature":"38","num_nodes":"119","size_leaf_vector":"1"}},{"base_weights":[7.841759E-3,-6.27843E-1,1.2042154E0,-8.0068505E-1,9.174476E-2,5.133054E-1,1.3200245E0,2.9661244E-1,-8.946275E-1,-5.9647006E-1,6.2370527E-1,7.0766276E-1,-1.3243894E-1,1.0482695E0,1.3764421E0,7.577125E-1,-1.2704693E-1,-6.235725E-1,-1.0795087E0,1.145855E0,-7.942416E-1,1.0165097E0,9.415936E-3,3.5721758E-1,9.5809436E-1,-2.8620923E-1,1.107713E0,4.2408293E-1,1.1949221E0,1.3207079E0,7.266907E-2,4.2516744E-1,1.2234106E0,-3.8106284E-1,5.964067E-1,-3.6003776E-2,-8.7055874E-1,-1.103871E0,8.480157E-1,1.2777251E0,2.651741E-1,6.666611E-1,-9.0057504E-1,4.7308692E-1,1.1270692E0,-3.4246752E-1,6.4361525E-1,4.7471547E-1,-7.033244E-1,3.0518156E-1,1.148743E0,-3.9514267E-1,1.0914776E0,1.5686546E-2,6.0777534E-2,9.989825E-1,1.296276E-1,1.2557851E0,7.253934E-1,6.1777914E-1,1.3324385E0,4.4336017E-2,-2.0768328E-3,6.676169E-2,1.5464474E-2,1.3480428E-2,-3.426744E-2,4.8352096E-2,-3.6017094E-2,-2.0493088E-2,5.8773506E-2,-5.0379902E-2,-2.369473E-2,-5.699229E-2,-1.0904E-2,-3.115634E-2,5.100205E-2,6.8863355E-2,1.9999025E-2,-2.250377E-2,5.704884E-2,1.4819989E-2,7.1278654E-2,-4.836715E-2,4.8829935E-2,5.570836E-2,4.740299E-3,5.732028E-2,-3.3437718E-2,-3.4951378E-2,2.5278447E-2,1.950161E-2,6.769301E-2,3.0871136E-2,-1.252414E-2,-6.347918E-2,2.7650022E-3,-1.8213656E-2,6.0116213E-2,6.273501E-2,1.3222997E-2,-2.919037E-2,2.4896603E-2,6.556805E-2,1.615614E-2,5.9331894E-2,-2.8091598E-2,5.337376E-2,-7.395851E-3,6.37199E-2,-1.3726823E-2,-4.254063E-3,5.380217E-2,5.8838766E-2,-9.325265E-3,6.767477E-2,5.238821E-2],"categories":[],"categories_nodes":[],"categories_segments":[],"categories_sizes":[],"default_left":[0,0,0,0,0,0,0,0,0,0,0,0,0,0,0,0,0,0,0,0,0,0,0,0,0,0,0,0,0,0,0,0,0,0,0,0,0,0,0,0,0,0,0,0,0,0,0,0,0,0,0,0,0,0,0,0,0,0,0,0,0,0,0,0,0,0,0,0,0,0,0,0,0,0,0,0,0,0,0,0,0,0,0,0,0,0,0,0,0,0,0,0,0,0,0,0,0,0,0,0,0,0,0,0,0,0,0,0,0,0,0,0,0,0,0,0,0],"id":13,"left_children":[1,3,5,7,9,11,13,15,17,19,21,23,25,27,29,31,33,35,37,39,41,43,45,47,49,51,53,55,57,59,-1,61,63,65,67,69,71,73,75,77,79,81,83,85,87,89,91,93,95,97,99,101,103,-1,-1,105,107,109,111,113,115,-1,-1,-1,-1,-1,-1,-1,-1,-1,-1,-1,-1,-1,-1,-1,-1,-1,-1,-1,-1,-1,-1,-1,-1,-1,-1,-1,-1,-1,-1,-1,-1,-1,-1,-1,-1,-1,-1,-1,-1,-1,-1,-1,-1,-1,-1,-1,-1,-1,-1,-1,-1,-1,-1,-1,-1],"loss_changes":[3.5701938E3,3.8135437E2,1.2965381E2,2.5508093E2,2.1806596E2,2.9646305E1,1.9936035E1,3.832451E1,1.1344714E2,9.041533E1,8.103549E1,1.555603E1,1.086611E1,2.1820557E1,3.0180664E0,1.4013802E1,1.9126562E1,1.3432074E2,6.444641E1,2.7838364E0,3.6929153E1,1.1775009E1,2.9681023E1,9.940681E0,1.2726593E1,7.9366503E0,1.5872002E-1,7.9883366E0,4.717499E0,4.7733154E0,0E0,1.2160983E1,3.5290794E0,1.5375991E1,1.392997E1,1.2504843E2,3.4951263E1,4.2325317E1,5.0507946E0,1.4695549E0,3.4975686E0,4.1974883E0,2.832042E1,8.711114E0,6.6526947E0,2.622377E1,8.019093E0,7.3992033E0,3.5465012E0,1.5516018E1,7.2530518E0,8.223286E0,2.4029636E-1,0E0,0E0,5.380348E0,8.711462E0,5.2771606E0,7.1874685E0,6.0664077E0,2.5783691E0,0E0,0E0,0E0,0E0,0E0,0E0,0E0,0E0,0E0,0E0,0E0,0E0,0E0,0E0,0E0,0E0,0E0,0E0,0E0,0E0,0E0,0E0,0E0,0E0,0E0,0E0,0E0,0E0,0E0,0E0,0E0,0E0,0E0,0E0,0E0,0E0,0E0,0E0,0E0,0E0,0E0,0E0,0E0,0E0,0E0,0E0,0E0,0E0,0E0,0E0,0E0,0E0,0E0,0E0,0E0,0E0],"parents":[2147483647,0,0,1,1,2,2,3,3,4,4,5,5,6,6,7,7,8,8,9,9,10,10,11,11,12,12,13,13,14,14,15,15,16,16,17,17,18,18,19,19,20,20,21,21,22,22,23,23,24,24,25,25,26,26,27,27,28,28,29,29,31,31,32,32,33,33,34,34,35,35,36,36,37,37,38,38,39,39,40,40,41,41,42,42,43,43,44,44,45,45,46,46,47,47,48,48,49,49,50,50,51,51,52,52,55,55,56,56,57,57,58,58,59,59,60,60],"right_children":[2,4,6,8,10,12,14,16,18,20,22,24,26,28,30,32,34,36,38,40,42,44,46,48,50,52,54,56,58,60,-1,62,64,66,68,70,72,74,76,78,80,82,84,86,88,90,92,94,96,98,100,102,104,-1,-1,106,108,110,112,114,116,-1,-1,-1,-1,-1,-1,-1,-1,-1,-1,-1,-1,-1,-1,-1,-1,-1,-1,-1,-1,-1,-1,-1,-1,-1,-1,-1,-1,-1,-1,-1,-1,-1,-1,-1,-1,-1,-1,-1,-1,-1,-1,-1,-1,-1,-1,-1,-1,-1,-1,-1,-1,-1,-1,-1,-1],"split_conditions":[-1.8303332E-1,5.84679E-1,-5.499258E-3,-8.3210045E-1,-2.5143993E-1,3.2055706E-1,2.5431553E-1,-2.102828E-1,-2.102828E-1,-4.798789E-1,-7.450558E-2,1.0938222E-1,3.7296896E0,-7.397938E-1,1.4172335E0,1.9296038E-1,7.2225827E-1,1.0054161E-1,3.7296896E0,1.4097724E0,-4.7284907E-1,-7.025476E-1,1.2976242E0,1.4097724E0,-6.3432723E-1,1.8434675E0,-8.455723E-1,6.9965845E-1,4.4323438E-1,-2.0212574E0,7.266907E-2,-9.585035E-1,-8.519171E-1,-9.585035E-1,1.482312E0,-1.536334E-1,-1.2826617E-1,4.3410525E0,-2.1082368E0,-5.84166E-1,-1.6855803E-1,6.240905E-1,3.7296896E0,-3.7408358E-1,1.482312E0,3.0340928E-1,2.4561028E0,9.9964714E-1,-3.375961E-1,2.2199877E-1,1.130083E0,5.1313996E-1,-4.0339836E-1,1.5686546E-2,6.0777534E-2,-7.764334E-1,-4.7284907E-1,2.3355057E0,-6.527376E-2,-9.011996E-2,7.910742E-1,4.4336017E-2,-2.0768328E-3,6.676169E-2,1.5464474E-2,1.3480428E-2,-3.426744E-2,4.8352096E-2,-3.6017094E-2,-2.0493088E-2,5.8773506E-2,-5.0379902E-2,-2.369473E-2,-5.699229E-2,-1.0904E-2,-3.115634E-2,5.100205E-2,6.8863355E-2,1.9999025E-2,-2.250377E-2,5.704884E-2,1.4819989E-2,7.1278654E-2,-4.836715E-2,4.8829935E-2,5.570836E-2,4.740299E-3,5.732028E-2,-3.3437718E-2,-3.4951378E-2,2.5278447E-2,1.950161E-2,6.769301E-2,3.0871136E-2,-1.252414E-2,-6.347918E-2,2.7650022E-3,-1.8213656E-2,6.0116213E-2,6.273501E-2,1.3222997E-2,-2.919037E-2,2.4896603E-2,6.556805E-2,1.615614E-2,5.9331894E-2,-2.8091598E-2,5.337376E-2,-7.395851E-3,6.37199E-2,-1.3726823E-2,-4.254063E-3,5.380217E-2,5.8838766E-2,-9.325265E-3,6.767477E-2,5.238821E-2],"split_indices":[0,34,0,0,16,29,0,29,29,29,29,34,24,16,0,16,21,9,24,7,7,2,34,7,2,17,1,11,29,16,0,0,0,0,26,16,34,25,16,15,3,21,24,9,26,21,10,17,1,16,11,2,21,0,0,16,7,28,16,29,29,0,0,0,0,0,0,0,0,0,0,0,0,0,0,0,0,0,0,0,0,0,0,0,0,0,0,0,0,0,0,0,0,0,0,0,0,0,0,0,0,0,0,0,0,0,0,0,0,0,0,0,0,0,0,0,0],"split_type":[0,0,0,0,0,0,0,0,0,0,0,0,0,0,0,0,0,0,0,0,0,0,0,0,0,0,0,0,0,0,0,0,0,0,0,0,0,0,0,0,0,0,0,0,0,0,0,0,0,0,0,0,0,0,0,0,0,0,0,0,0,0,0,0,0,0,0,0,0,0,0,0,0,0,0,0,0,0,0,0,0,0,0,0,0,0,0,0,0,0,0,0,0,0,0,0,0,0,0,0,0,0,0,0,0,0,0,0,0,0,0,0,0,0,0,0,0],"sum_hessian":[4.6924395E3,3.0645745E3,1.627865E3,2.4709497E3,5.936247E2,2.3446909E2,1.393396E3,1.946917E2,2.276258E3,2.5875E2,3.348747E2,1.8015102E2,5.431807E1,2.4291127E2,1.1504846E3,9.284886E1,1.0184283E2,9.24791E2,1.351467E3,2.5888044E1,2.3286197E2,2.0386159E2,1.310131E2,7.609407E1,1.04056946E2,4.901034E1,5.30773E0,4.6954414E1,1.9595685E2,6.7771735E2,4.727673E2,5.5284412E1,3.756445E1,7.572712E1,2.6115707E1,2.7403064E2,6.507604E2,1.3350208E3,1.6446218E1,2.212438E1,3.7636654E0,1.544163E1,2.1742033E2,3.5356445E1,1.6850514E2,8.455696E1,4.6456154E1,6.9001724E1,7.092346E0,2.410512E1,7.995183E1,4.607999E1,2.930352E0,1.1021514E0,4.205579E0,1.5093317E1,3.1861095E1,1.7198819E2,2.3968666E1,1.2004979E1,6.657124E2,2.7343122E1,2.7941292E1,3.305964E1,4.5048122E0,2.416587E1,5.156125E1,2.0586618E1,5.5290885E0,2.099135E2,6.4117134E1,4.8251962E2,1.6824077E2,1.2826417E3,5.237905E1,1.4472432E0,1.4998976E1,1.9359758E1,2.7646213E0,2.3393044E0,1.4243609E0,1.1312834E1,4.128796E0,2.104207E2,6.9996305E0,1.2398728E1,2.2957718E1,1.6706787E2,1.4372652E0,5.9651833E1,2.4905125E1,3.537511E1,1.1081042E1,5.7780148E1,1.1221575E1,